{"learner":{"attributes":{"scikit_learn":"{\"_estimator_type\": \"classifier\"}"},"feature_names":["resting_heart_rate","sleep_efficiency","spo2","gps_distance_km","sprint_count","match_load","avg_heart_rate","max_heart_rate","avg_speed_mps","max_speed_mps","avg_cadence","duration_sec","avg_right_knee_angle","avg_left_knee_angle","avg_knee_angle_difference","avg_hip_alignment_abs_angle","avg_right_ankle_deviation_angle","avg_left_ankle_deviation_angle","pose_detection_coverage"],"feature_types":["float","float","float","float","float","float","float","float","float","float","float","float","float","float","float","float","float","float","float"],"gradient_booster":{"model":{"cats":{"enc":[],"feature_segments":[],"sorted_idx":[]},"gbtree_model_param":{"num_parallel_tree":"1","num_trees":"360"},"iteration_indptr":[0,3,6,9,12,15,18,21,24,27,30,33,36,39,42,45,48,51,54,57,60,63,66,69,72,75,78,81,84,87,90,93,96,99,102,105,108,111,114,117,120,123,126,129,132,135,138,141,144,147,150,153,156,159,162,165,168,171,174,177,180,183,186,189,192,195,198,201,204,207,210,213,216,219,222,225,228,231,234,237,240,243,246,249,252,255,258,261,264,267,270,273,276,279,282,285,288,291,294,297,300,303,306,309,312,315,318,321,324,327,330,333,336,339,342,345,348,351,354,357,360],"tree_info":[0,1,2,0,1,2,0,1,2,0,1,2,0,1,2,0,1,2,0,1,2,0,1,2,0,1,2,0,1,2,0,1,2,0,1,2,0,1,2,0,1,2,0,1,2,0,1,2,0,1,2,0,1,2,0,1,2,0,1,2,0,1,2,0,1,2,0,1,2,0,1,2,0,1,2,0,1,2,0,1,2,0,1,2,0,1,2,0,1,2,0,1,2,0,1,2,0,1,2,0,1,2,0,1,2,0,1,2,0,1,2,0,1,2,0,1,2,0,1,2,0,1,2,0,1,2,0,1,2,0,1,2,0,1,2,0,1,2,0,1,2,0,1,2,0,1,2,0,1,2,0,1,2,0,1,2,0,1,2,0,1,2,0,1,2,0,1,2,0,1,2,0,1,2,0,1,2,0,1,2,0,1,2,0,1,2,0,1,2,0,1,2,0,1,2,0,1,2,0,1,2,0,1,2,0,1,2,0,1,2,0,1,2,0,1,2,0,1,2,0,1,2,0,1,2,0,1,2,0,1,2,0,1,2,0,1,2,0,1,2,0,1,2,0,1,2,0,1,2,0,1,2,0,1,2,0,1,2,0,1,2,0,1,2,0,1,2,0,1,2,0,1,2,0,1,2,0,1,2,0,1,2,0,1,2,0,1,2,0,1,2,0,1,2,0,1,2,0,1,2,0,1,2,0,1,2,0,1,2,0,1,2,0,1,2,0,1,2,0,1,2,0,1,2,0,1,2,0,1,2,0,1,2,0,1,2,0,1,2,0,1,2,0,1,2,0,1,2,0,1,2,0,1,2,0,1,2,0,1,2],"trees":[{"base_weights":[-8.7902635E-2,-5.5096054E-1,1.1202258E0,2.1374047E-1,-6.9379175E-1,1.2550037E0,-6.0919195E-4,-3.8867578E-2,5.0744336E-2,-5.805057E-2,-2.9899888E-2,3.3505574E-2,1.0606603E-1],"categories":[],"categories_nodes":[],"categories_segments":[],"categories_sizes":[],"default_left":[0,0,0,0,0,0,0,0,0,0,0,0,0],"id":0,"left_children":[1,3,5,7,9,11,-1,-1,-1,-1,-1,-1,-1],"loss_changes":[2.5505922E1,3.734334E0,1.933505E0,2.0534167E0,1.31111145E-2,1.1460686E-1,0E0,0E0,0E0,0E0,0E0,0E0,0E0],"parents":[2147483647,0,0,1,1,2,2,3,3,4,4,5,5],"right_children":[2,4,6,8,10,12,-1,-1,-1,-1,-1,-1,-1],"split_conditions":[6.3E1,8.1E1,1.97E2,6.42E0,1.43E2,1.25E2,-6.0919195E-4,-3.8867578E-2,5.0744336E-2,-5.805057E-2,-2.9899888E-2,3.3505574E-2,1.0606603E-1],"split_indices":[0,1,10,3,6,6,0,0,0,0,0,0,0],"split_type":[0,0,0,0,0,0,0,0,0,0,0,0,0],"sum_hessian":[4.3489155E1,3.183227E1,1.1656887E1,4.93176E0,2.6900509E1,1.0311862E1,1.3450254E0,1.7933673E0,3.1383927E0,2.3313774E1,3.5867345E0,1.3450254E0,8.966836E0],"tree_param":{"num_deleted":"0","num_feature":"19","num_nodes":"13","size_leaf_vector":"1"}},{"base_weights":[-3.8064446E-2,1.224197E0,-6.8883234E-1,3.0691325E-4,1.3374143E0,3.0691325E-4,-5.7664566E-2,3.46811E-2,1.11728266E-1],"categories":[],"categories_nodes":[],"categories_segments":[],"categories_sizes":[],"default_left":[0,0,0,0,0,0,0,0,0],"id":1,"left_children":[1,3,5,-1,7,-1,-1,-1,-1],"loss_changes":[3.7645233E1,2.150343E0,6.7165756E-1,0E0,1.5818596E-1,0E0,0E0,0E0,0E0],"parents":[2147483647,0,0,1,1,2,2,4,4],"right_children":[2,4,6,-1,8,-1,-1,-1,-1],"split_conditions":[4.2E1,9.4E1,1E1,3.0691325E-4,4.6E1,3.0691325E-4,-5.7664566E-2,3.46811E-2,1.11728266E-1],"split_indices":[5,2,4,0,0,0,0,0,0],"split_type":[0,0,0,0,0,0,0,0,0],"sum_hessian":[4.380182E1,1.4600606E1,2.9201212E1,1.3273277E0,1.3273278E1,1.3273277E0,2.7873884E1,1.3273277E0,1.19459505E1],"tree_param":{"num_deleted":"0","num_feature":"19","num_nodes":"9","size_leaf_vector":"1"}},{"base_weights":[-5.5398893E-2,1.710601E-1,-5.459216E-2,-5.6546617E-1,7.732605E-1,8.67226E-3,-5.5119276E-2,-3.8167164E-2,7.491436E-2],"categories":[],"categories_nodes":[],"categories_segments":[],"categories_sizes":[],"default_left":[0,0,0,0,0,0,0,0,0],"id":2,"left_children":[1,3,-1,5,7,-1,-1,-1,-1],"loss_changes":[6.2268734E0,1.4813787E1,0E0,1.3364477E0,4.1711693E0,0E0,0E0,0E0,0E0],"parents":[2147483647,0,0,1,1,3,3,4,4],"right_children":[2,4,-1,6,8,-1,-1,-1,-1],"split_conditions":[6.9E1,1.24E2,-5.459216E-2,4.7E1,5.04E0,8.67226E-3,-5.5119276E-2,-3.8167164E-2,7.491436E-2],"split_indices":[5,6,0,0,3,0,0,0,0],"split_type":[0,0,0,0,0,0,0,0,0],"sum_hessian":[4.2032047E1,3.1413424E1,1.0618622E1,1.4158163E1,1.725526E1,2.212213E0,1.19459505E1,1.7697704E0,1.5485491E1],"tree_param":{"num_deleted":"0","num_feature":"19","num_nodes":"9","size_leaf_vector":"1"}},{"base_weights":[1.7086908E-3,-5.139021E-1,1.1339728E0,-5.9337366E-1,4.6479303E-2,1.6969133E-2,9.9321686E-2,-5.6383267E-2,-2.3150003E-2],"categories":[],"categories_nodes":[],"categories_segments":[],"categories_sizes":[],"default_left":[0,0,0,0,0,0,0,0,0],"id":3,"left_children":[1,3,5,7,-1,-1,-1,-1,-1],"loss_changes":[2.882832E1,3.2972164E0,1.2684536E0,8.8431454E-1,0E0,0E0,0E0,0E0,0E0],"parents":[2147483647,0,0,1,1,2,2,3,3],"right_children":[2,4,6,8,-1,-1,-1,-1,-1],"split_conditions":[6.3E1,1.88E2,4.9E1,6.76E0,4.6479303E-2,1.6969133E-2,9.9321686E-2,-5.6383267E-2,-2.3150003E-2],"split_indices":[0,7,5,3,0,0,0,0,0],"split_type":[0,0,0,0,0,0,0,0,0],"sum_hessian":[4.7381638E1,3.293144E1,1.4450201E1,3.112996E1,1.8014767E0,1.8202295E0,1.26299715E1,2.1815908E1,9.314051E0],"tree_param":{"num_deleted":"0","num_feature":"19","num_nodes":"9","size_leaf_vector":"1"}},{"base_weights":[1.2474725E-2,1.1022937E0,-5.6208327E-2,-9.197071E-3,1.2339067E0,3.0871741E-2,1.02685064E-1],"categories":[],"categories_nodes":[],"categories_segments":[],"categories_sizes":[],"default_left":[0,0,0,0,0,0,0],"id":4,"left_children":[1,3,-1,-1,5,-1,-1],"loss_changes":[3.733967E1,3.1823368E0,0E0,0E0,2.2945786E-1,0E0,0E0],"parents":[2147483647,0,0,1,1,4,4],"right_children":[2,4,-1,-1,6,-1,-1],"split_conditions":[4.3E1,9.4E1,-5.6208327E-2,-9.197071E-3,5.61E0,3.0871741E-2,1.02685064E-1],"split_indices":[5,2,0,0,9,0,0],"split_type":[0,0,0,0,0,0,0],"sum_hessian":[4.592017E1,1.7978483E1,2.7941687E1,1.7665538E0,1.621193E1,1.3820088E0,1.4829921E1],"tree_param":{"num_deleted":"0","num_feature":"19","num_nodes":"7","size_leaf_vector":"1"}},{"base_weights":[-8.071409E-3,2.1441509E-1,-5.3319912E-2,-5.0052285E-1,7.890461E-1,-4.912583E-2,3.5373364E-2,-3.3301286E-2,7.1772404E-2],"categories":[],"categories_nodes":[],"categories_segments":[],"categories_sizes":[],"default_left":[0,0,0,0,0,0,0,0,0],"id":5,"left_children":[1,3,-1,5,7,-1,-1,-1,-1],"loss_changes":[6.823614E0,1.4709459E1,0E0,1.9989786E0,2.9411545E0,0E0,0E0,0E0,0E0],"parents":[2147483647,0,0,1,1,3,3,4,4],"right_children":[2,4,-1,6,8,-1,-1,-1,-1],"split_conditions":[6.9E1,1.24E2,-5.3319912E-2,1.863E3,5.04E0,-4.912583E-2,3.5373364E-2,-3.3301286E-2,7.1772404E-2],"split_indices":[5,6,0,11,3,0,0,0,0],"split_type":[0,0,0,0,0,0,0,0,0],"sum_hessian":[4.4604824E1,3.384332E1,1.0761503E1,1.5138027E1,1.8705294E1,1.3821747E1,1.3162801E0,1.305029E0,1.7400265E1],"tree_param":{"num_deleted":"0","num_feature":"19","num_nodes":"9","size_leaf_vector":"1"}},{"base_weights":[3.549327E-2,-4.564814E-1,9.9715227E-1,3.689153E-1,-6.2177813E-1,1.0948354E0,-2.7268054E-3,-3.6601786E-2,6.479364E-2,-5.511288E-2,-1.4484636E-2,2.9445857E-2,9.142642E-2],"categories":[],"categories_nodes":[],"categories_segments":[],"categories_sizes":[],"default_left":[0,0,0,0,0,0,0,0,0,0,0,0,0],"id":6,"left_children":[1,3,5,7,9,11,-1,-1,-1,-1,-1,-1,-1],"loss_changes":[2.280573E1,4.5869775E0,1.6795597E0,2.541521E0,6.735859E-1,9.985542E-2,0E0,0E0,0E0,0E0,0E0,0E0,0E0],"parents":[2147483647,0,0,1,1,2,2,3,3,4,4,5,5],"right_children":[2,4,6,8,10,12,-1,-1,-1,-1,-1,-1,-1],"split_conditions":[6.3E1,8.1E1,1.96E2,6.42E0,1.43E2,1.25E2,-2.7268054E-3,-3.6601786E-2,6.479364E-2,-5.511288E-2,-1.4484636E-2,2.9445857E-2,9.142642E-2],"split_indices":[0,1,10,3,6,6,0,0,0,0,0,0,0],"split_type":[0,0,0,0,0,0,0,0,0,0,0,0,0],"sum_hessian":[4.6241577E1,3.0938885E1,1.53026905E1,4.9566073E0,2.5982277E1,1.3922246E1,1.3804448E0,1.7116137E0,3.2449937E0,2.2058987E1,3.9232912E0,1.3994904E0,1.2522756E1],"tree_param":{"num_deleted":"0","num_feature":"19","num_nodes":"13","size_leaf_vector":"1"}},{"base_weights":[-2.7773995E-2,1.0692451E0,-5.4693427E-2,9.3120515E-2,4.4440624E-1,-3.0731047E-3,5.8657877E-2],"categories":[],"categories_nodes":[],"categories_segments":[],"categories_sizes":[],"default_left":[0,0,0,0,0,0,0],"id":7,"left_children":[1,3,-1,-1,5,-1,-1],"loss_changes":[3.2220413E1,4.753933E-1,0E0,0E0,5.615967E-1,0E0,0E0],"parents":[2147483647,0,0,1,1,4,4],"right_children":[2,4,-1,-1,6,-1,-1],"split_conditions":[4.2E1,1.7E2,-5.4693427E-2,9.3120515E-2,5E1,-3.0731047E-3,5.8657877E-2],"split_indices":[5,7,0,0,0,0,0],"split_type":[0,0,0,0,0,0,0],"sum_hessian":[4.2763966E1,1.5765342E1,2.6998625E1,1.2940003E1,2.825338E0,1.382009E0,1.4433287E0],"tree_param":{"num_deleted":"0","num_feature":"19","num_nodes":"7","size_leaf_vector":"1"}},{"base_weights":[7.403696E-3,-5.008999E-1,2.9883316E-1,-6.021141E-1,1.864787E-2,7.339341E-1,-5.1896457E-2,2.9644745E-3,-5.302433E-2,7.1578994E-2,-3.846111E-2],"categories":[],"categories_nodes":[],"categories_segments":[],"categories_sizes":[],"default_left":[0,0,0,0,0,0,0,0,0,0,0],"id":8,"left_children":[1,3,5,7,-1,9,-1,-1,-1,-1,-1],"loss_changes":[6.9318213E0,1.4075785E0,1.2731396E1,6.168871E-1,0E0,4.500925E0,0E0,0E0,0E0,0E0,0E0],"parents":[2147483647,0,0,1,1,2,2,3,3,5,5],"right_children":[2,4,6,8,-1,10,-1,-1,-1,-1,-1],"split_conditions":[1.24E2,1.863E3,9.88E0,1.54E2,1.864787E-2,2.9E1,-5.1896457E-2,2.9644745E-3,-5.302433E-2,7.1578994E-2,-3.846111E-2],"split_indices":[6,11,3,10,0,4,0,0,0,0,0],"split_type":[0,0,0,0,0,0,0,0,0,0,0],"sum_hessian":[4.4783592E1,1.6057594E1,2.8725998E1,1.4269579E1,1.7880143E0,1.9840746E1,8.885253E0,1.2711911E0,1.2998388E1,1.7753874E1,2.0868728E0],"tree_param":{"num_deleted":"0","num_feature":"19","num_nodes":"11","size_leaf_vector":"1"}},{"base_weights":[6.0668122E-2,-4.3741605E-1,9.80977E-1,-5.482628E-1,5.1656928E-2,2.7603425E-2,8.482778E-2,-8.380831E-4,-5.086759E-2],"categories":[],"categories_nodes":[],"categories_segments":[],"categories_sizes":[],"default_left":[0,0,0,0,0,0,0,0,0],"id":9,"left_children":[1,3,5,7,-1,-1,-1,-1,-1],"loss_changes":[2.1709259E1,4.053469E0,4.7254086E-1,1.3353834E0,0E0,0E0,0E0,0E0,0E0],"parents":[2147483647,0,0,1,1,2,2,3,3],"right_children":[2,4,6,8,-1,-1,-1,-1,-1],"split_conditions":[6.3E1,1.88E2,8.03E0,8.1E1,5.1656928E-2,2.7603425E-2,8.482778E-2,-8.380831E-4,-5.086759E-2],"split_indices":[0,7,3,1,0,0,0,0,0],"split_type":[0,0,0,0,0,0,0,0,0],"sum_hessian":[4.542358E1,2.9813046E1,1.5610535E1,2.749322E1,2.319827E0,2.325481E0,1.3285054E1,4.0071898E0,2.3486029E1],"tree_param":{"num_deleted":"0","num_feature":"19","num_nodes":"9","size_leaf_vector":"1"}},{"base_weights":[5.793374E-3,9.6438575E-1,-6.365688E-1,-1.6036268E-3,1.0392401E0,1.5360686E-3,-5.341397E-2,8.677173E-2,2.4460362E-2],"categories":[],"categories_nodes":[],"categories_segments":[],"categories_sizes":[],"default_left":[0,0,0,0,0,0,0,0,0],"id":10,"left_children":[1,3,5,-1,7,-1,-1,-1,-1],"loss_changes":[2.9962957E1,1.4593697E0,6.0724926E-1,0E0,2.7322006E-1,0E0,0E0,0E0,0E0],"parents":[2147483647,0,0,1,1,2,2,4,4],"right_children":[2,4,6,-1,8,-1,-1,-1,-1],"split_conditions":[4.2E1,9.4E1,3.48E0,-1.6036268E-3,4E1,1.5360686E-3,-5.341397E-2,8.677173E-2,2.4460362E-2],"split_indices":[5,2,8,0,5,0,0,0,0],"split_type":[0,0,0,0,0,0,0,0,0],"sum_hessian":[4.666288E1,1.8521729E1,2.8141151E1,1.3605797E0,1.7161148E1,1.2917303E0,2.684942E1,1.5709873E1,1.4512756E0],"tree_param":{"num_deleted":"0","num_feature":"19","num_nodes":"9","size_leaf_vector":"1"}},{"base_weights":[-1.5557433E-2,-5.2821094E-1,2.2956035E-1,3.0441599E-2,-5.188036E-2,7.53499E-1,-5.1880693E-1,2.9463575E-3,7.3702686E-2,4.8171855E-3,-5.1373024E-2],"categories":[],"categories_nodes":[],"categories_segments":[],"categories_sizes":[],"default_left":[0,0,0,0,0,0,0,0,0,0,0],"id":11,"left_children":[1,3,5,-1,-1,7,9,-1,-1,-1,-1],"loss_changes":[5.834692E0,1.8876133E0,1.2725132E1,0E0,0E0,2.2400017E0,1.0062191E0,0E0,0E0,0E0,0E0],"parents":[2147483647,0,0,1,1,2,2,5,5,6,6],"right_children":[2,4,6,-1,-1,8,10,-1,-1,-1,-1],"split_conditions":[4E1,9.4E1,6.3E1,3.0441599E-2,-5.188036E-2,7.9E1,4.9E1,2.9463575E-3,7.3702686E-2,4.8171855E-3,-5.1373024E-2],"split_indices":[5,2,0,0,0,1,5,0,0,0,0],"split_type":[0,0,0,0,0,0,0,0,0,0,0],"sum_hessian":[4.4467236E1,1.4010318E1,3.0456917E1,1.384927E0,1.2625391E1,1.7910652E1,1.2546266E1,3.6290698E0,1.4281583E1,2.2933478E0,1.0252917E1],"tree_param":{"num_deleted":"0","num_feature":"19","num_nodes":"11","size_leaf_vector":"1"}},{"base_weights":[-1.0725419E-2,-4.4742718E-1,8.438796E-1,-5.2280143E-2,2.0186855E-2,9.400934E-1,-4.8376173E-3,1.9924225E-2,-3.963226E-2,2.2001138E-2,7.9690956E-2],"categories":[],"categories_nodes":[],"categories_segments":[],"categories_sizes":[],"default_left":[0,0,0,0,0,0,0,0,0,0,0],"id":12,"left_children":[1,3,5,-1,7,9,-1,-1,-1,-1,-1],"loss_changes":[1.6843636E1,2.8899298E0,1.3852768E0,0E0,1.315401E0,2.4264622E-1,0E0,0E0,0E0,0E0,0E0],"parents":[2147483647,0,0,1,1,2,2,4,4,5,5],"right_children":[2,4,6,-1,8,10,-1,-1,-1,-1,-1],"split_conditions":[6.3E1,5.1E1,1.97E2,-5.2280143E-2,8.8E1,1.567E3,-4.8376173E-3,1.9924225E-2,-3.963226E-2,2.2001138E-2,7.9690956E-2],"split_indices":[0,5,10,0,1,11,0,0,0,0,0],"split_type":[0,0,0,0,0,0,0,0,0,0,0],"sum_hessian":[4.312039E1,2.8853004E1,1.4267386E1,1.9751232E1,9.101771E0,1.2859717E1,1.4076695E0,6.6616697E0,2.4401014E0,1.4585065E0,1.1401211E1],"tree_param":{"num_deleted":"0","num_feature":"19","num_nodes":"11","size_leaf_vector":"1"}},{"base_weights":[3.6009834E-3,8.8349366E-1,-6.1740917E-1,3.667271E-1,9.552784E-1,2.663294E-3,-5.209741E-2,5.1845506E-2,-5.9198188E-3,7.996167E-2,2.4002174E-2],"categories":[],"categories_nodes":[],"categories_segments":[],"categories_sizes":[],"default_left":[0,0,0,0,0,0,0,0,0,0,0],"id":13,"left_children":[1,3,5,7,9,-1,-1,-1,-1,-1,-1],"loss_changes":[2.479512E1,3.4609318E-1,6.069784E-1,5.3312993E-1,1.5991497E-1,0E0,0E0,0E0,0E0,0E0,0E0],"parents":[2147483647,0,0,1,1,2,2,3,3,4,4],"right_children":[2,4,6,8,10,-1,-1,-1,-1,-1,-1],"split_conditions":[4.2E1,1.62E2,4.3E1,3E0,6.52E0,2.663294E-3,-5.209741E-2,5.1845506E-2,-5.9198188E-3,7.996167E-2,2.4002174E-2],"split_indices":[5,10,5,4,3,0,0,0,0,0,0],"split_type":[0,0,0,0,0,0,0,0,0,0,0],"sum_hessian":[4.3378944E1,1.7773489E1,2.5605455E1,2.9128773E0,1.4860613E1,1.2654319E0,2.4340023E1,1.4907677E0,1.4221096E0,1.3428519E1,1.4320936E0],"tree_param":{"num_deleted":"0","num_feature":"19","num_nodes":"11","size_leaf_vector":"1"}},{"base_weights":[5.454114E-2,2.4448629E-1,-4.9268443E-2,-4.4847432E-1,6.8306124E-1,2.89435E-2,-4.4919882E-2,-1.6049623E-2,6.306178E-2],"categories":[],"categories_nodes":[],"categories_segments":[],"categories_sizes":[],"default_left":[0,0,0,0,0,0,0,0,0],"id":14,"left_children":[1,3,-1,5,7,-1,-1,-1,-1],"loss_changes":[5.965369E0,1.1337925E1,0E0,1.5468616E0,2.2617216E0,0E0,0E0,0E0,0E0],"parents":[2147483647,0,0,1,1,3,3,4,4],"right_children":[2,4,-1,6,8,-1,-1,-1,-1],"split_conditions":[6.9E1,4.2E1,-4.9268443E-2,9.4E1,1.23E2,2.89435E-2,-4.4919882E-2,-1.6049623E-2,6.306178E-2],"split_indices":[5,5,0,2,6,0,0,0,0],"split_type":[0,0,0,0,0,0,0,0,0],"sum_hessian":[4.466408E1,3.5298252E1,9.365829E0,1.3672597E1,2.1625656E1,1.4042842E0,1.2268312E1,2.204334E0,1.9421322E1],"tree_param":{"num_deleted":"0","num_feature":"19","num_nodes":"9","size_leaf_vector":"1"}},{"base_weights":[1.3616098E-2,-4.3776417E-1,8.0630344E-1,-5.2138025E-1,4.2272378E-2,2.4039382E-3,7.4393675E-2,-1.0425933E-3,-4.8523016E-2],"categories":[],"categories_nodes":[],"categories_segments":[],"categories_sizes":[],"default_left":[0,0,0,0,0,0,0,0,0],"id":15,"left_children":[1,3,5,7,-1,-1,-1,-1,-1],"loss_changes":[1.6589031E1,2.6636682E0,1.5856838E0,1.191649E0,0E0,0E0,0E0,0E0,0E0],"parents":[2147483647,0,0,1,1,2,2,3,3],"right_children":[2,4,6,8,-1,-1,-1,-1,-1],"split_conditions":[6.3E1,1.88E2,8.03E0,8.1E1,4.2272378E-2,2.4039382E-3,7.4393675E-2,-1.0425933E-3,-4.8523016E-2],"split_indices":[0,7,3,1,0,0,0,0,0],"split_type":[0,0,0,0,0,0,0,0,0],"sum_hessian":[4.4377045E1,2.8561186E1,1.581586E1,2.670996E1,1.8512235E0,2.3434277E0,1.3472433E1,3.9978447E0,2.2712116E1],"tree_param":{"num_deleted":"0","num_feature":"19","num_nodes":"9","size_leaf_vector":"1"}},{"base_weights":[-2.741653E-2,8.1047976E-1,-6.004564E-1,8.879443E-1,1.9580102E-2,3.4864005E-3,-5.0925784E-2,7.4973516E-2,2.1421418E-2],"categories":[],"categories_nodes":[],"categories_segments":[],"categories_sizes":[],"default_left":[0,0,0,0,0,0,0,0,0],"id":16,"left_children":[1,3,5,7,-1,-1,-1,-1,-1],"loss_changes":[1.9885647E1,5.2043056E-1,5.991821E-1,1.8946934E-1,0E0,0E0,0E0,0E0,0E0],"parents":[2147483647,0,0,1,1,2,2,3,3],"right_children":[2,4,6,8,-1,-1,-1,-1,-1],"split_conditions":[4.2E1,1.7E2,3.55E0,1.702E3,1.9580102E-2,3.4864005E-3,-5.0925784E-2,7.4973516E-2,2.1421418E-2],"split_indices":[5,7,8,11,0,0,0,0,0],"split_type":[0,0,0,0,0,0,0,0,0],"sum_hessian":[3.9402103E1,1.5834548E1,2.3567554E1,1.3426514E1,2.4080343E0,1.2404552E0,2.2327099E1,1.1965643E1,1.4608707E0],"tree_param":{"num_deleted":"0","num_feature":"19","num_nodes":"9","size_leaf_vector":"1"}},{"base_weights":[4.3073833E-2,-4.827338E-1,2.6092353E-1,2.8056089E-2,-4.9136825E-2,6.1615103E-1,-4.794083E-2,5.8211643E-2,-2.060873E-2],"categories":[],"categories_nodes":[],"categories_segments":[],"categories_sizes":[],"default_left":[0,0,0,0,0,0,0,0,0],"id":17,"left_children":[1,3,5,-1,-1,7,-1,-1,-1],"loss_changes":[5.0907845E0,1.6451628E0,9.93182E0,0E0,0E0,2.3931808E0,0E0,0E0,0E0],"parents":[2147483647,0,0,1,1,2,2,5,5],"right_children":[2,4,6,-1,-1,8,-1,-1,-1],"split_conditions":[4E1,9.4E1,6.9E1,2.8056089E-2,-4.9136825E-2,9.88E0,-4.794083E-2,5.8211643E-2,-2.060873E-2],"split_indices":[5,2,5,0,0,3,0,0,0],"split_type":[0,0,0,0,0,0,0,0,0],"sum_hessian":[4.234314E1,1.2047963E1,3.0295176E1,1.4144301E0,1.0633533E1,2.1641605E1,8.653569E0,1.9340876E1,2.300731E0],"tree_param":{"num_deleted":"0","num_feature":"19","num_nodes":"9","size_leaf_vector":"1"}},{"base_weights":[1.7937144E-2,-4.158143E-1,8.014028E-1,2.5501058E-1,-5.915503E-1,7.157229E-2,-5.6287735E-3,-3.44823E-2,4.601529E-2,-5.0639138E-2,5.504561E-3],"categories":[],"categories_nodes":[],"categories_segments":[],"categories_sizes":[],"default_left":[0,0,0,0,0,0,0,0,0,0,0],"id":18,"left_children":[1,3,5,7,9,-1,-1,-1,-1,-1,-1],"loss_changes":[1.4586991E1,3.4111266E0,1.3057613E0,1.662459E0,6.514821E-1,0E0,0E0,0E0,0E0,0E0,0E0],"parents":[2147483647,0,0,1,1,2,2,3,3,4,4],"right_children":[2,4,6,8,10,-1,-1,-1,-1,-1,-1],"split_conditions":[6.3E1,8.1E1,1.97E2,6.42E0,9.36E0,7.157229E-2,-5.6287735E-3,-3.44823E-2,4.601529E-2,-5.0639138E-2,5.504561E-3],"split_indices":[0,1,10,3,9,0,0,0,0,0,0],"split_type":[0,0,0,0,0,0,0,0,0,0,0],"sum_hessian":[4.094386E1,2.6655687E1,1.4288172E1,5.4397607E0,2.1215927E1,1.2883761E1,1.4044102E0,1.6207765E0,3.8189843E0,2.0002188E1,1.2137394E0],"tree_param":{"num_deleted":"0","num_feature":"19","num_nodes":"11","size_leaf_vector":"1"}},{"base_weights":[3.953812E-2,7.9184365E-1,-5.85679E-1,-3.478772E-3,8.5902345E-1,4.498659E-3,-4.9883798E-2,1.8698458E-2,7.205559E-2],"categories":[],"categories_nodes":[],"categories_segments":[],"categories_sizes":[],"default_left":[0,0,0,0,0,0,0,0,0],"id":19,"left_children":[1,3,5,-1,7,-1,-1,-1,-1],"loss_changes":[2.0032585E1,1.1208763E0,6.013551E-1,0E0,2.5639534E-1,0E0,0E0,0E0,0E0],"parents":[2147483647,0,0,1,1,2,2,4,4],"right_children":[2,4,6,-1,8,-1,-1,-1,-1],"split_conditions":[4.2E1,9.4E1,1.53E2,-3.478772E-3,5.61E0,4.498659E-3,-4.9883798E-2,1.8698458E-2,7.205559E-2],"split_indices":[5,2,7,0,9,0,0,0,0],"split_type":[0,0,0,0,0,0,0,0,0],"sum_hessian":[4.0604424E1,1.8308195E1,2.2296227E1,1.3890587E0,1.6919136E1,1.2150391E0,2.1081188E1,1.4700141E0,1.5449122E1],"tree_param":{"num_deleted":"0","num_feature":"19","num_nodes":"9","size_leaf_vector":"1"}},{"base_weights":[1.9524748E-2,-4.8771003E-1,2.435473E-1,-1.5921134E-1,-4.7885664E-2,5.071726E-1,-4.6099022E-2,-3.7920546E-2,3.050031E-2,-1.1373815E-2,4.977593E-2],"categories":[],"categories_nodes":[],"categories_segments":[],"categories_sizes":[],"default_left":[0,0,0,0,0,0,0,0,0,0,0],"id":20,"left_children":[1,3,5,7,-1,9,-1,-1,-1,-1,-1],"loss_changes":[5.231722E0,4.1882968E-1,7.1816072E0,1.0185635E0,0E0,1.9298434E0,0E0,0E0,0E0,0E0,0E0],"parents":[2147483647,0,0,1,1,2,2,3,3,5,5],"right_children":[2,4,6,8,-1,10,-1,-1,-1,-1,-1],"split_conditions":[4E1,4.9E1,6.9E1,1.325E3,-4.7885664E-2,1.23E2,-4.6099022E-2,-3.7920546E-2,3.050031E-2,-1.1373815E-2,4.977593E-2],"split_indices":[5,0,5,11,0,6,0,0,0,0,0],"split_type":[0,0,0,0,0,0,0,0,0,0,0],"sum_hessian":[4.3995605E1,1.3117572E1,3.0878033E1,3.92457E0,9.193002E0,2.3653053E1,7.2249794E0,2.5577605E0,1.3668096E0,3.5239158E0,2.0129137E1],"tree_param":{"num_deleted":"0","num_feature":"19","num_nodes":"11","size_leaf_vector":"1"}},{"base_weights":[-4.7181588E-2,-4.0158835E-1,7.650881E-1,-4.933293E-2,-4.9559336E-2,2.2003332E-3,6.7393996E-2,2.2747843E-2,-2.8571794E-2],"categories":[],"categories_nodes":[],"categories_segments":[],"categories_sizes":[],"default_left":[0,0,0,0,0,0,0,0,0],"id":21,"left_children":[1,3,5,-1,7,-1,-1,-1,-1],"loss_changes":[1.2309682E1,2.2168574E0,7.189288E-1,0E0,1.3694533E0,0E0,0E0,0E0,0E0],"parents":[2147483647,0,0,1,1,2,2,4,4],"right_children":[2,4,6,-1,8,-1,-1,-1,-1],"split_conditions":[6.6E1,6.76E0,8.05E0,-4.933293E-2,4.63E0,2.2003332E-3,6.7393996E-2,2.2747843E-2,-2.8571794E-2],"split_indices":[5,3,3,0,8,0,0,0,0],"split_type":[0,0,0,0,0,0,0,0,0],"sum_hessian":[4.069337E1,2.8683764E1,1.2009606E1,1.7338818E1,1.1344945E1,1.2683771E0,1.0741229E1,5.4759703E0,5.8689747E0],"tree_param":{"num_deleted":"0","num_feature":"19","num_nodes":"9","size_leaf_vector":"1"}},{"base_weights":[-4.71801E-3,7.0529807E-1,-5.1885635E-1,7.714671E-1,-4.343457E-3,4.4904426E-2,-4.91971E-2,1.628206E-2,6.5144114E-2],"categories":[],"categories_nodes":[],"categories_segments":[],"categories_sizes":[],"default_left":[0,0,0,0,0,0,0,0,0],"id":22,"left_children":[1,3,5,7,-1,-1,-1,-1,-1],"loss_changes":[1.5176419E1,9.1963196E-1,2.8478518E0,2.2667122E-1,0E0,0E0,0E0,0E0,0E0],"parents":[2147483647,0,0,1,1,2,2,3,3],"right_children":[2,4,6,8,-1,-1,-1,-1,-1],"split_conditions":[1.24E2,1.863E3,4.56E0,2.44E0,-4.343457E-3,4.4904426E-2,-4.91971E-2,1.628206E-2,6.5144114E-2],"split_indices":[6,11,3,8,0,0,0,0,0],"split_type":[0,0,0,0,0,0,0,0,0],"sum_hessian":[3.9571465E1,1.6463648E1,2.3107817E1,1.5130017E1,1.3336304E0,1.4925449E0,2.161527E1,1.4644415E0,1.3665576E1],"tree_param":{"num_deleted":"0","num_feature":"19","num_nodes":"9","size_leaf_vector":"1"}},{"base_weights":[-3.7507962E-2,-5.284433E-1,1.716196E-1,-4.7360606E-2,3.7607024E-3,4.8525503E-1,-4.6097964E-2,4.5581553E-2,-3.636583E-2],"categories":[],"categories_nodes":[],"categories_segments":[],"categories_sizes":[],"default_left":[0,0,0,0,0,0,0,0,0],"id":23,"left_children":[1,3,5,-1,-1,7,-1,-1,-1],"loss_changes":[4.3798246E0,4.9328566E-1,7.328261E0,0E0,0E0,1.9838176E0,0E0,0E0,0E0],"parents":[2147483647,0,0,1,1,2,2,5,5],"right_children":[2,4,6,-1,-1,8,-1,-1,-1],"split_conditions":[4E1,6.52E0,6.9E1,-4.7360606E-2,3.7607024E-3,9.88E0,-4.6097964E-2,4.5581553E-2,-3.636583E-2],"split_indices":[5,3,5,0,0,3,0,0,0],"split_type":[0,0,0,0,0,0,0,0,0],"sum_hessian":[4.077669E1,1.1724967E1,2.9051725E1,1.0532752E1,1.1922153E0,2.071519E1,8.336535E0,1.9367327E1,1.3478634E0],"tree_param":{"num_deleted":"0","num_feature":"19","num_nodes":"9","size_leaf_vector":"1"}},{"base_weights":[-1.4824103E-2,-3.980516E-1,6.8318653E-1,3.9795226E-1,-5.756151E-1,3.2785253E-3,6.383695E-2,-2.9431872E-2,5.5011358E-2,-4.9225952E-2,5.7223635E-3],"categories":[],"categories_nodes":[],"categories_segments":[],"categories_sizes":[],"default_left":[0,0,0,0,0,0,0,0,0,0,0],"id":24,"left_children":[1,3,5,7,9,-1,-1,-1,-1,-1,-1],"loss_changes":[1.1254745E1,4.0646873E0,1.067069E0,1.4822286E0,6.246958E-1,0E0,0E0,0E0,0E0,0E0,0E0],"parents":[2147483647,0,0,1,1,2,2,3,3,4,4],"right_children":[2,4,6,8,10,-1,-1,-1,-1,-1,-1],"split_conditions":[6.3E1,8.1E1,5.1E1,6.42E0,9.41E0,3.2785253E-3,6.383695E-2,-2.9431872E-2,5.5011358E-2,-4.9225952E-2,5.7223635E-3],"split_indices":[0,1,5,3,3,0,0,0,0,0,0],"split_type":[0,0,0,0,0,0,0,0,0,0,0],"sum_hessian":[4.0057682E1,2.6137302E1,1.3920381E1,4.5406637E0,2.1596638E1,2.3164055E0,1.1603975E1,1.1720772E0,3.3685863E0,2.039439E1,1.2022477E0],"tree_param":{"num_deleted":"0","num_feature":"19","num_nodes":"11","size_leaf_vector":"1"}},{"base_weights":[-2.8916455E-3,7.291166E-1,-4.831495E-2,7.901019E-1,-3.5735136E-3,1.4796509E-2,6.676902E-2],"categories":[],"categories_nodes":[],"categories_segments":[],"categories_sizes":[],"default_left":[0,0,0,0,0,0,0],"id":25,"left_children":[1,3,-1,5,-1,-1,-1],"loss_changes":[1.7911713E1,9.0157986E-1,0E0,3.0542183E-1,0E0,0E0,0E0],"parents":[2147483647,0,0,1,1,3,3],"right_children":[2,4,-1,6,-1,-1,-1],"split_conditions":[4.3E1,1.73E2,-4.831495E-2,1.54E2,-3.5735136E-3,1.4796509E-2,6.676902E-2],"split_indices":[5,7,0,10,0,0,0],"split_type":[0,0,0,0,0,0,0],"sum_hessian":[3.871036E1,1.73576E1,2.1352762E1,1.6069971E1,1.2876282E0,1.454239E0,1.4615732E1],"tree_param":{"num_deleted":"0","num_feature":"19","num_nodes":"7","size_leaf_vector":"1"}},{"base_weights":[1.1687882E-2,-4.1713464E-1,2.2801277E-1,-5.25497E-1,1.7482715E-2,5.6225866E-1,-4.5003105E-2,7.309334E-3,-4.7623638E-2,5.3196788E-2,-2.1505885E-2],"categories":[],"categories_nodes":[],"categories_segments":[],"categories_sizes":[],"default_left":[0,0,0,0,0,0,0,0,0,0,0],"id":26,"left_children":[1,3,5,7,-1,9,-1,-1,-1,-1,-1],"loss_changes":[3.9680796E0,1.1034937E0,7.8200235E0,5.9500766E-1,0E0,1.9249997E0,0E0,0E0,0E0,0E0,0E0],"parents":[2147483647,0,0,1,1,2,2,3,3,5,5],"right_children":[2,4,6,8,-1,10,-1,-1,-1,-1,-1],"split_conditions":[1.24E2,1.863E3,6.9E1,2.44E0,1.7482715E-2,1.92E2,-4.5003105E-2,7.309334E-3,-4.7623638E-2,5.3196788E-2,-2.1505885E-2],"split_indices":[6,11,5,8,0,7,0,0,0,0,0],"split_type":[0,0,0,0,0,0,0,0,0,0,0],"sum_hessian":[4.0750317E1,1.3352759E1,2.7397558E1,1.1556107E1,1.7966527E0,1.9459036E1,7.938522E0,1.1432555E0,1.0412851E1,1.7496758E1,1.9622788E0],"tree_param":{"num_deleted":"0","num_feature":"19","num_nodes":"11","size_leaf_vector":"1"}},{"base_weights":[1.1311949E-2,-5.0726914E-1,6.329244E-1,-5.706786E-1,2.0599399E-2,-2.993955E-2,7.374426E-1,-4.8590325E-2,-7.6739267E-3,6.2436394E-2,1.2161402E-2],"categories":[],"categories_nodes":[],"categories_segments":[],"categories_sizes":[],"default_left":[0,0,0,0,0,0,0,0,0,0,0],"id":27,"left_children":[1,3,5,7,-1,-1,9,-1,-1,-1,-1],"loss_changes":[1.2998947E1,1.2136207E0,2.2057862E0,3.010702E-1,0E0,0E0,3.080511E-1,0E0,0E0,0E0,0E0],"parents":[2147483647,0,0,1,1,2,2,3,3,6,6],"right_children":[2,4,6,8,-1,-1,10,-1,-1,-1,-1],"split_conditions":[1.36E2,9.41E0,6.44E0,9.37E0,2.0599399E-2,-2.993955E-2,1.098E1,-4.8590325E-2,-7.6739267E-3,6.2436394E-2,1.2161402E-2],"split_indices":[6,3,3,9,0,0,9,0,0,0,0],"split_type":[0,0,0,0,0,0,0,0,0,0,0],"sum_hessian":[3.8328777E1,2.0996424E1,1.7332352E1,1.962317E1,1.3732543E0,1.3869201E0,1.5945432E1,1.7955763E1,1.6674078E0,1.4543733E1,1.4016986E0],"tree_param":{"num_deleted":"0","num_feature":"19","num_nodes":"11","size_leaf_vector":"1"}},{"base_weights":[-4.9497478E-2,6.7222524E-1,-4.7489766E-2,-1.7674691E-3,7.351287E-1,1.4034928E-2,6.260145E-2],"categories":[],"categories_nodes":[],"categories_segments":[],"categories_sizes":[],"default_left":[0,0,0,0,0,0,0],"id":28,"left_children":[1,3,-1,-1,5,-1,-1],"loss_changes":[1.4778933E1,7.241664E-1,0E0,0E0,2.5769424E-1,0E0,0E0],"parents":[2147483647,0,0,1,1,4,4],"right_children":[2,4,-1,-1,6,-1,-1],"split_conditions":[4.3E1,9.4E1,-4.7489766E-2,-1.7674691E-3,5.61E0,1.4034928E-2,6.260145E-2],"split_indices":[5,2,0,0,9,0,0],"split_type":[0,0,0,0,0,0,0],"sum_hessian":[3.561733E1,1.5208914E1,2.0408413E1,1.3173186E0,1.3891596E1,1.4514377E0,1.2440158E1],"tree_param":{"num_deleted":"0","num_feature":"19","num_nodes":"7","size_leaf_vector":"1"}},{"base_weights":[6.44163E-4,-4.4000903E-1,1.7894132E-1,2.5627613E-2,-4.570783E-2,5.144789E-1,-3.8979384E-1,-3.0895686E-2,4.7695555E-2,9.816827E-3,-4.5547273E-2],"categories":[],"categories_nodes":[],"categories_segments":[],"categories_sizes":[],"default_left":[0,0,0,0,0,0,0,0,0,0,0],"id":29,"left_children":[1,3,5,-1,-1,7,9,-1,-1,-1,-1],"loss_changes":[3.3156161E0,1.3970761E0,5.933491E0,0E0,0E0,1.6525989E0,1.1479743E0,0E0,0E0,0E0,0E0],"parents":[2147483647,0,0,1,1,2,2,5,5,6,6],"right_children":[2,4,6,-1,-1,8,10,-1,-1,-1,-1],"split_conditions":[4E1,9.4E1,6.3E1,2.5627613E-2,-4.570783E-2,1.5E2,5.1E1,-3.0895686E-2,4.7695555E-2,9.816827E-3,-4.5547273E-2],"split_indices":[5,2,0,0,0,7,5,0,0,0,0],"split_type":[0,0,0,0,0,0,0,0,0,0,0],"sum_hessian":[4.019887E1,1.1157005E1,2.9041866E1,1.4313692E0,9.7256365E0,1.832565E1,1.0716215E1,1.2143946E0,1.7111256E1,2.8623636E0,7.8538523E0],"tree_param":{"num_deleted":"0","num_feature":"19","num_nodes":"11","size_leaf_vector":"1"}},{"base_weights":[-1.7371397E-2,-3.8540494E-1,6.379302E-1,-4.9754322E-1,4.335678E-2,7.2017264E-1,-7.870918E-3,-1.8145999E-2,-4.8058342E-2,1.26476465E-2,6.163775E-2],"categories":[],"categories_nodes":[],"categories_segments":[],"categories_sizes":[],"default_left":[0,0,0,0,0,0,0,0,0,0,0],"id":30,"left_children":[1,3,5,7,-1,9,-1,-1,-1,-1,-1],"loss_changes":[9.994854E0,3.0263748E0,9.740238E-1,5.389252E-1,0E0,2.6088762E-1,0E0,0E0,0E0,0E0,0E0],"parents":[2147483647,0,0,1,1,2,2,3,3,5,5],"right_children":[2,4,6,8,-1,10,-1,-1,-1,-1,-1],"split_conditions":[6.3E1,1.88E2,1.96E2,9.5E1,4.335678E-2,1.567E3,-7.870918E-3,-1.8145999E-2,-4.8058342E-2,1.26476465E-2,6.163775E-2],"split_indices":[0,7,10,2,0,11,0,0,0,0,0],"split_type":[0,0,0,0,0,0,0,0,0,0,0],"sum_hessian":[3.9423237E1,2.5508757E1,1.391448E1,2.317044E1,2.338316E0,1.2536184E1,1.3782961E0,7.2769365E0,1.5893504E1,1.3700006E0,1.1166183E1],"tree_param":{"num_deleted":"0","num_feature":"19","num_nodes":"11","size_leaf_vector":"1"}},{"base_weights":[-5.8295634E-3,5.2891016E-1,-4.650135E-2,6.7757803E-1,-3.5694122E-2,1.3112563E-2,5.9184197E-2],"categories":[],"categories_nodes":[],"categories_segments":[],"categories_sizes":[],"default_left":[0,0,0,0,0,0,0],"id":31,"left_children":[1,3,-1,5,-1,-1,-1],"loss_changes":[1.2094277E1,3.256435E0,0E0,4.5660973E-1,0E0,0E0,0E0],"parents":[2147483647,0,0,1,1,3,3],"right_children":[2,4,-1,6,-1,-1,-1],"split_conditions":[1.3E1,6.56E0,-4.650135E-2,1.58E2,-3.5694122E-2,1.3112563E-2,5.9184197E-2],"split_indices":[4,3,0,10,0,0,0],"split_type":[0,0,0,0,0,0,0],"sum_hessian":[3.7305126E1,1.9378252E1,1.7926876E1,1.7079336E1,2.2989144E0,2.2380514E0,1.4841286E1],"tree_param":{"num_deleted":"0","num_feature":"19","num_nodes":"7","size_leaf_vector":"1"}},{"base_weights":[-1.5926432E-2,-4.3193385E-1,1.5532301E-1,2.447738E-2,-4.491808E-2,4.991032E-1,-4.4644487E-1,4.9434412E-2,-2.2560835E-2,-4.7147803E-2,2.7576195E-2],"categories":[],"categories_nodes":[],"categories_segments":[],"categories_sizes":[],"default_left":[0,0,0,0,0,0,0,0,0,0,0],"id":32,"left_children":[1,3,5,-1,-1,7,9,-1,-1,-1,-1],"loss_changes":[2.9385788E0,1.320612E0,6.2818832E0,0E0,0E0,1.9481835E0,1.4667261E0,0E0,0E0,0E0,0E0],"parents":[2147483647,0,0,1,1,2,2,5,5,6,6],"right_children":[2,4,6,-1,-1,8,10,-1,-1,-1,-1],"split_conditions":[4E1,9.4E1,6.3E1,2.447738E-2,-4.491808E-2,1.88E2,1.97E2,4.9434412E-2,-2.2560835E-2,-4.7147803E-2,2.7576195E-2],"split_indices":[5,2,0,0,0,7,10,0,0,0,0],"split_type":[0,0,0,0,0,0,0,0,0,0,0],"sum_hessian":[3.9306675E1,1.1018283E1,2.8288393E1,1.4420615E0,9.576221E0,1.8111942E1,1.0176452E1,1.5901792E1,2.2101507E0,8.835579E0,1.3408728E0],"tree_param":{"num_deleted":"0","num_feature":"19","num_nodes":"11","size_leaf_vector":"1"}},{"base_weights":[-1.194437E-2,-4.3530476E-1,4.7782338E-1,-5.378493E-1,-2.6916336E-2,6.217279E-1,-2.376897E-1,-4.6135135E-2,-5.690785E-3,2.2367546E-2,-3.25402E-2,4.8725377E-3,5.7943452E-2,8.469128E-3,-3.4272447E-2],"categories":[],"categories_nodes":[],"categories_segments":[],"categories_sizes":[],"default_left":[0,0,0,0,0,0,0,0,0,0,0,0,0,0,0],"id":33,"left_children":[1,3,5,7,9,11,13,-1,-1,-1,-1,-1,-1,-1,-1],"loss_changes":[7.9699955E0,8.4828544E-1,1.9839416E0,2.565217E-1,7.176711E-1,8.2579327E-1,2.8839877E-1,0E0,0E0,0E0,0E0,0E0,0E0,0E0,0E0],"parents":[2147483647,0,0,1,1,2,2,3,3,4,4,5,5,6,6],"right_children":[2,4,6,8,10,12,14,-1,-1,-1,-1,-1,-1,-1,-1],"split_conditions":[1.36E2,5.3E1,8.5E1,6.2E1,1.31E2,1.9E1,9.5E1,-4.6135135E-2,-5.690785E-3,2.2367546E-2,-3.25402E-2,4.8725377E-3,5.7943452E-2,8.469128E-3,-3.4272447E-2],"split_indices":[6,5,1,0,6,4,2,0,0,0,0,0,0,0,0],"split_type":[0,0,0,0,0,0,0,0,0,0,0,0,0,0,0],"sum_hessian":[3.6434586E1,1.9601791E1,1.6832792E1,1.5414318E1,4.187473E0,1.4123366E1,2.709427E0,1.4012561E1,1.4017575E0,2.4634707E0,1.7240019E0,2.4300156E0,1.1693351E1,1.1259904E0,1.5834367E0],"tree_param":{"num_deleted":"0","num_feature":"19","num_nodes":"15","size_leaf_vector":"1"}},{"base_weights":[-2.5575567E-2,5.7590467E-1,-4.602374E-2,-1.4910172E-2,6.8792075E-1,1.1171032E-2,5.8588374E-2],"categories":[],"categories_nodes":[],"categories_segments":[],"categories_sizes":[],"default_left":[0,0,0,0,0,0,0],"id":34,"left_children":[1,3,-1,-1,5,-1,-1],"loss_changes":[1.226489E1,1.642498E0,0E0,0E0,2.7962112E-1,0E0,0E0],"parents":[2147483647,0,0,1,1,4,4],"right_children":[2,4,-1,-1,6,-1,-1],"split_conditions":[4.3E1,9.4E1,-4.602374E-2,-1.4910172E-2,1.54E2,1.1171032E-2,5.8588374E-2],"split_indices":[5,2,0,0,10,0,0],"split_type":[0,0,0,0,0,0,0],"sum_hessian":[3.5091644E1,1.6734201E1,1.835744E1,2.0589535E0,1.4675247E1,1.4107089E0,1.3264539E1],"tree_param":{"num_deleted":"0","num_feature":"19","num_nodes":"7","size_leaf_vector":"1"}},{"base_weights":[2.1485504E-2,1.5521638E-1,-4.249296E-2,-4.1433576E-1,4.375256E-1,2.4208104E-2,-4.398241E-2,4.317933E-2,-1.1024126E-2],"categories":[],"categories_nodes":[],"categories_segments":[],"categories_sizes":[],"default_left":[0,0,0,0,0,0,0,0,0],"id":35,"left_children":[1,3,-1,5,7,-1,-1,-1,-1],"loss_changes":[2.998077E0,5.4130654E0,0E0,1.2633413E0,1.3823309E0,0E0,0E0,0E0,0E0],"parents":[2147483647,0,0,1,1,3,3,4,4],"right_children":[2,4,-1,6,8,-1,-1,-1,-1],"split_conditions":[6.9E1,4E1,-4.249296E-2,9.4E1,6.3E1,2.4208104E-2,-4.398241E-2,4.317933E-2,-1.1024126E-2],"split_indices":[5,5,0,2,0,0,0,0,0],"split_type":[0,0,0,0,0,0,0,0,0],"sum_hessian":[3.8450523E1,3.1538023E1,6.9125E0,1.02968025E1,2.124122E1,1.4400678E0,8.856735E0,1.8089233E1,3.1519866E0],"tree_param":{"num_deleted":"0","num_feature":"19","num_nodes":"9","size_leaf_vector":"1"}},{"base_weights":[-2.54823E-2,-4.60328E-1,4.4272944E-1,-5.210423E-1,4.566644E-3,-3.560116E-2,5.9433216E-1,-4.551511E-2,5.398992E-3,-8.18918E-3,5.290981E-2],"categories":[],"categories_nodes":[],"categories_segments":[],"categories_sizes":[],"default_left":[0,0,0,0,0,0,0,0,0,0,0],"id":36,"left_children":[1,3,5,7,-1,-1,9,-1,-1,-1,-1],"loss_changes":[7.3293686E0,6.1517143E-1,2.6011605E0,5.1132584E-1,0E0,0E0,7.803469E-1,0E0,0E0,0E0,0E0],"parents":[2147483647,0,0,1,1,2,2,3,3,6,6],"right_children":[2,4,6,8,-1,-1,10,-1,-1,-1,-1],"split_conditions":[1.36E2,6.3E1,7.18E0,9.36E0,4.566644E-3,-3.560116E-2,1.571E3,-4.551511E-2,5.398992E-3,-8.18918E-3,5.290981E-2],"split_indices":[6,0,3,9,0,0,11,0,0,0,0],"split_type":[0,0,0,0,0,0,0,0,0,0,0],"sum_hessian":[3.3997902E1,1.7635756E1,1.6362146E1,1.577738E1,1.8583746E0,2.1043355E0,1.4257811E1,1.4620779E1,1.1566012E0,1.2052916E0,1.3052519E1],"tree_param":{"num_deleted":"0","num_feature":"19","num_nodes":"11","size_leaf_vector":"1"}},{"base_weights":[-1.4881045E-2,4.5351022E-1,-4.5229014E-2,5.9261245E-1,-3.4039322E-2,1.2932943E-2,5.5122394E-2],"categories":[],"categories_nodes":[],"categories_segments":[],"categories_sizes":[],"default_left":[0,0,0,0,0,0,0],"id":37,"left_children":[1,3,-1,5,-1,-1,-1],"loss_changes":[9.582319E0,2.7093883E0,0E0,6.269231E-1,0E0,0E0,0E0],"parents":[2147483647,0,0,1,1,3,3],"right_children":[2,4,-1,6,-1,-1,-1],"split_conditions":[6.63E0,1.3E1,-4.5229014E-2,1.62E2,-3.4039322E-2,1.2932943E-2,5.5122394E-2],"split_indices":[3,4,0,10,0,0,0],"split_type":[0,0,0,0,0,0,0],"sum_hessian":[3.5169304E1,1.9096619E1,1.6072685E1,1.6768768E1,2.3278499E0,3.5551662E0,1.3213603E1],"tree_param":{"num_deleted":"0","num_feature":"19","num_nodes":"7","size_leaf_vector":"1"}},{"base_weights":[-2.7658217E-2,-4.1601047E-1,1.33265E-1,2.2936152E-2,-4.3501653E-2,4.4806662E-1,-4.2483905E-1,4.436333E-2,-1.1598566E-2,-3.393406E-4,-4.328996E-2],"categories":[],"categories_nodes":[],"categories_segments":[],"categories_sizes":[],"default_left":[0,0,0,0,0,0,0,0,0,0,0],"id":38,"left_children":[1,3,5,-1,-1,7,9,-1,-1,-1,-1],"loss_changes":[2.4931388E0,1.2036586E0,5.1687512E0,0E0,0E0,1.2551231E0,5.226134E-1,0E0,0E0,0E0,0E0],"parents":[2147483647,0,0,1,1,2,2,5,5,6,6],"right_children":[2,4,6,-1,-1,8,10,-1,-1,-1,-1],"split_conditions":[4E1,9.4E1,6.3E1,2.2936152E-2,-4.3501653E-2,6.6E1,4.9E1,4.436333E-2,-1.1598566E-2,-3.393406E-4,-4.328996E-2],"split_indices":[5,2,0,0,0,5,5,0,0,0,0],"split_type":[0,0,0,0,0,0,0,0,0,0,0],"sum_hessian":[3.8006374E1,1.0670458E1,2.7335917E1,1.4501604E0,9.220298E0,1.7603647E1,9.73227E0,1.497923E1,2.6244166E0,2.3324444E0,7.3998256E0],"tree_param":{"num_deleted":"0","num_feature":"19","num_nodes":"11","size_leaf_vector":"1"}},{"base_weights":[3.961522E-2,-4.202252E-1,5.0908166E-1,-5.144402E-1,1.3011282E-2,6.210871E-1,-1.8108797E-1,1.8399411E-3,-4.488014E-2,1.1248165E-2,5.4657295E-2,8.762455E-3,-3.0352818E-2],"categories":[],"categories_nodes":[],"categories_segments":[],"categories_sizes":[],"default_left":[0,0,0,0,0,0,0,0,0,0,0,0,0],"id":39,"left_children":[1,3,5,7,-1,9,11,-1,-1,-1,-1,-1,-1],"loss_changes":[7.917778E0,1.1037412E0,1.5124474E0,4.190669E-1,0E0,3.758211E-1,2.3192595E-1,0E0,0E0,0E0,0E0,0E0,0E0],"parents":[2147483647,0,0,1,1,2,2,3,3,5,5,6,6],"right_children":[2,4,6,8,-1,10,12,-1,-1,-1,-1,-1,-1],"split_conditions":[1.36E2,6.3E1,8.5E1,7.7E1,1.3011282E-2,1.9E1,1.52E2,1.8399411E-3,-4.488014E-2,1.1248165E-2,5.4657295E-2,8.762455E-3,-3.0352818E-2],"split_indices":[6,0,1,1,0,4,6,0,0,0,0,0,0],"split_type":[0,0,0,0,0,0,0,0,0,0,0,0,0],"sum_hessian":[3.4685852E1,1.7575556E1,1.7110296E1,1.5231E1,2.3445563E0,1.4807353E1,2.3029428E0,1.2546922E0,1.3976308E1,2.069056E0,1.2738297E1,1.1157103E0,1.1872325E0],"tree_param":{"num_deleted":"0","num_feature":"19","num_nodes":"13","size_leaf_vector":"1"}},{"base_weights":[-5.0688166E-2,5.131729E-1,-4.47898E-2,-3.421329E-2,6.3823986E-1,8.713683E-3,5.4704003E-2],"categories":[],"categories_nodes":[],"categories_segments":[],"categories_sizes":[],"default_left":[0,0,0,0,0,0,0],"id":40,"left_children":[1,3,-1,-1,5,-1,-1],"loss_changes":[9.821005E0,2.1884303E0,0E0,0E0,2.817073E-1,0E0,0E0],"parents":[2147483647,0,0,1,1,4,4],"right_children":[2,4,-1,-1,6,-1,-1],"split_conditions":[4.3E1,9.4E1,-4.47898E-2,-3.421329E-2,2.12E0,8.713683E-3,5.4704003E-2],"split_indices":[5,2,0,0,8,0,0],"split_type":[0,0,0,0,0,0,0],"sum_hessian":[3.220581E1,1.5278668E1,1.6927141E1,1.5088172E0,1.3769852E1,1.3600051E0,1.2409846E1],"tree_param":{"num_deleted":"0","num_feature":"19","num_nodes":"7","size_leaf_vector":"1"}},{"base_weights":[-2.4616798E-2,1.18378654E-1,-4.0800238E-1,-3.4129977E-1,4.085082E-1,1.6079973E-2,-4.502471E-2,1.6551398E-2,-3.7993968E-2,4.0962532E-2,-3.8649514E-2],"categories":[],"categories_nodes":[],"categories_segments":[],"categories_sizes":[],"default_left":[0,0,0,0,0,0,0,0,0,0,0],"id":41,"left_children":[1,3,5,7,9,-1,-1,-1,-1,-1,-1],"loss_changes":[2.0531342E0,3.7950377E0,1.0709195E0,9.1508734E-1,1.8404889E0,0E0,0E0,0E0,0E0,0E0,0E0],"parents":[2147483647,0,0,1,1,2,2,3,3,4,4],"right_children":[2,4,6,8,10,-1,-1,-1,-1,-1,-1],"split_conditions":[6.3E1,1.24E2,1.605E3,4.7E1,1.88E2,1.6079973E-2,-4.502471E-2,1.6551398E-2,-3.7993968E-2,4.0962532E-2,-3.8649514E-2],"split_indices":[0,6,11,0,7,0,0,0,0,0,0],"split_type":[0,0,0,0,0,0,0,0,0,0,0],"sum_hessian":[3.5569645E1,2.6410328E1,9.159317E0,1.01509285E1,1.6259401E1,1.795907E0,7.3634095E0,1.881954E0,8.268974E0,1.4949414E1,1.3099864E0],"tree_param":{"num_deleted":"0","num_feature":"19","num_nodes":"11","size_leaf_vector":"1"}},{"base_weights":[9.13452E-3,-4.4307545E-2,3.43323E-1,-3.9482746E-2,4.991941E-1,4.928512E-2,-3.191597E-2],"categories":[],"categories_nodes":[],"categories_segments":[],"categories_sizes":[],"default_left":[0,0,0,0,0,0,0],"id":42,"left_children":[1,-1,3,-1,5,-1,-1],"loss_changes":[6.696432E0,0E0,3.1575384E0,0E0,2.272747E0,0E0,0E0],"parents":[2147483647,0,0,2,2,4,4],"right_children":[2,-1,4,-1,6,-1,-1],"split_conditions":[6.63E0,-4.4307545E-2,1.514E3,-3.9482746E-2,8.8E1,4.928512E-2,-3.191597E-2],"split_indices":[3,0,11,0,1,0,0],"split_type":[0,0,0,0,0,0,0],"sum_hessian":[3.358195E1,1.2264206E1,2.1317745E1,3.0070236E0,1.8310722E1,1.648031E1,1.8304118E0],"tree_param":{"num_deleted":"0","num_feature":"19","num_nodes":"7","size_leaf_vector":"1"}},{"base_weights":[-2.7406532E-3,5.154668E-1,-4.415836E-2,-3.3448994E-2,6.2732506E-1,7.111667E-3,5.3587746E-2],"categories":[],"categories_nodes":[],"categories_segments":[],"categories_sizes":[],"default_left":[0,0,0,0,0,0,0],"id":43,"left_children":[1,3,-1,-1,5,-1,-1],"loss_changes":[9.657382E0,2.0857563E0,0E0,0E0,3.0661106E-1,0E0,0E0],"parents":[2147483647,0,0,1,1,4,4],"right_children":[2,4,-1,-1,6,-1,-1],"split_conditions":[4.3E1,9.4E1,-4.415836E-2,-3.3448994E-2,2.44E0,7.111667E-3,5.3587746E-2],"split_indices":[5,2,0,0,8,0,0],"split_type":[0,0,0,0,0,0,0],"sum_hessian":[3.1931156E1,1.6461348E1,1.5469809E1,1.4683651E0,1.4992982E1,1.3235974E0,1.3669385E1],"tree_param":{"num_deleted":"0","num_feature":"19","num_nodes":"7","size_leaf_vector":"1"}},{"base_weights":[-2.8924594E-2,-3.5972998E-1,1.2990192E-1,-4.7153798E-1,1.42143285E-2,3.5271102E-1,-4.0286176E-2,9.949822E-3,-4.4082187E-2,3.5649374E-2,-3.933029E-2],"categories":[],"categories_nodes":[],"categories_segments":[],"categories_sizes":[],"default_left":[0,0,0,0,0,0,0,0,0,0,0],"id":44,"left_children":[1,3,5,7,-1,9,-1,-1,-1,-1,-1],"loss_changes":[1.952832E0,8.068254E-1,3.740859E0,5.533333E-1,0E0,1.7302668E0,0E0,0E0,0E0,0E0,0E0],"parents":[2147483647,0,0,1,1,2,2,3,3,5,5],"right_children":[2,4,6,8,-1,10,-1,-1,-1,-1,-1],"split_conditions":[1.24E2,1.863E3,6.9E1,2.44E0,1.42143285E-2,1.92E2,-4.0286176E-2,9.949822E-3,-4.4082187E-2,3.5649374E-2,-3.933029E-2],"split_indices":[6,11,5,8,0,7,0,0,0,0,0],"split_type":[0,0,0,0,0,0,0,0,0,0,0],"sum_hessian":[3.527861E1,1.10333395E1,2.4245272E1,9.234643E0,1.7986964E0,1.826446E1,5.980812E0,1.0203921E0,8.2142515E0,1.6879381E1,1.3850783E0],"tree_param":{"num_deleted":"0","num_feature":"19","num_nodes":"11","size_leaf_vector":"1"}},{"base_weights":[1.0148254E-2,-3.240221E-1,5.6368434E-1,-4.3738437E-1,3.5569828E-2,1.1442039E-2,5.121445E-2,-4.1023158E-2,6.525202E-3],"categories":[],"categories_nodes":[],"categories_segments":[],"categories_sizes":[],"default_left":[0,0,0,0,0,0,0,0,0],"id":45,"left_children":[1,3,5,7,-1,-1,-1,-1,-1],"loss_changes":[6.419633E0,2.0818279E0,3.286252E-1,8.002033E-1,0E0,0E0,0E0,0E0,0E0],"parents":[2147483647,0,0,1,1,2,2,3,3],"right_children":[2,4,6,8,-1,-1,-1,-1,-1],"split_conditions":[6.3E1,1.88E2,1.35E2,9.37E0,3.5569828E-2,1.1442039E-2,5.121445E-2,-4.1023158E-2,6.525202E-3],"split_indices":[0,7,6,9,0,0,0,0,0],"split_type":[0,0,0,0,0,0,0,0,0],"sum_hessian":[3.2717934E1,2.0660063E1,1.2057872E1,1.838025E1,2.2798123E0,2.2968779E0,9.760994E0,1.6058731E1,2.321519E0],"tree_param":{"num_deleted":"0","num_feature":"19","num_nodes":"9","size_leaf_vector":"1"}},{"base_weights":[-3.6759842E-2,5.318957E-1,-4.3867934E-2,-2.9292353E-3,5.90395E-1,6.508996E-3,5.0988283E-2],"categories":[],"categories_nodes":[],"categories_segments":[],"categories_sizes":[],"default_left":[0,0,0,0,0,0,0],"id":46,"left_children":[1,3,-1,-1,5,-1,-1],"loss_changes":[9.297115E0,5.260544E-1,0E0,0E0,2.782712E-1,0E0,0E0],"parents":[2147483647,0,0,1,1,4,4],"right_children":[2,4,-1,-1,6,-1,-1],"split_conditions":[4.2E1,9.4E1,-4.3867934E-2,-2.9292353E-3,2.44E0,6.508996E-3,5.0988283E-2],"split_indices":[5,2,0,0,8,0,0],"split_type":[0,0,0,0,0,0,0],"sum_hessian":[2.9955273E1,1.4167614E1,1.5787659E1,1.356722E0,1.2810892E1,1.3127942E0,1.1498097E1],"tree_param":{"num_deleted":"0","num_feature":"19","num_nodes":"7","size_leaf_vector":"1"}},{"base_weights":[3.5296385E-3,1.3949776E-1,-4.6126768E-1,-3.8099703E-1,4.2146495E-1,2.6580223E-4,-4.3301743E-2,1.8859798E-2,-4.123776E-2,4.6055317E-2,-1.3877675E-2],"categories":[],"categories_nodes":[],"categories_segments":[],"categories_sizes":[],"default_left":[0,0,0,0,0,0,0,0,0,0,0],"id":47,"left_children":[1,3,5,7,9,-1,-1,-1,-1,-1,-1],"loss_changes":[2.1910658E0,4.0943155E0,2.9351878E-1,9.461894E-1,1.7386165E0,0E0,0E0,0E0,0E0,0E0,0E0],"parents":[2147483647,0,0,1,1,2,2,3,3,4,4],"right_children":[2,4,6,8,10,-1,-1,-1,-1,-1,-1],"split_conditions":[6.6E1,4E1,1.72E2,9.4E1,6.3E1,2.6580223E-4,-4.3301743E-2,1.8859798E-2,-4.123776E-2,4.6055317E-2,-1.3877675E-2],"split_indices":[5,5,10,2,0,0,0,0,0,0,0],"split_type":[0,0,0,0,0,0,0,0,0,0,0],"sum_hessian":[3.26519E1,2.580344E1,6.8484597E0,8.943344E0,1.6860096E1,1.146884E0,5.7015758E0,1.4661269E0,7.4772167E0,1.3414876E1,3.44522E0],"tree_param":{"num_deleted":"0","num_feature":"19","num_nodes":"11","size_leaf_vector":"1"}},{"base_weights":[-2.0060116E-2,-3.935965E-1,3.7341458E-1,-4.421953E-2,4.3840766E-2,5.282938E-1,-2.5310257E-1,4.8471455E-2,-2.3645723E-2,4.557555E-3,5.0024014E-2,9.728832E-3,-3.506509E-2],"categories":[],"categories_nodes":[],"categories_segments":[],"categories_sizes":[],"default_left":[0,0,0,0,0,0,0,0,0,0,0,0,0],"id":48,"left_children":[1,3,5,-1,7,9,11,-1,-1,-1,-1,-1,-1],"loss_changes":[4.8818507E0,1.2086344E0,1.7058623E0,0E0,1.2216293E0,5.731368E-1,3.2309657E-1,0E0,0E0,0E0,0E0,0E0,0E0],"parents":[2147483647,0,0,1,1,2,2,4,4,5,5,6,6],"right_children":[2,4,6,-1,8,10,12,-1,-1,-1,-1,-1,-1],"split_conditions":[1.36E2,5.3E1,8.5E1,-4.421953E-2,1.25E2,1.9E1,9.5E1,4.8471455E-2,-2.3645723E-2,4.557555E-3,5.0024014E-2,9.728832E-3,-3.506509E-2],"split_indices":[6,5,1,0,6,4,2,0,0,0,0,0,0],"split_type":[0,0,0,0,0,0,0,0,0,0,0,0,0],"sum_hessian":[3.1215055E1,1.6013083E1,1.5201972E1,1.1548083E1,4.4649997E0,1.2314518E1,2.887454E0,1.3855172E0,3.0794826E0,2.372848E0,9.941669E0,1.0686967E0,1.8187573E0],"tree_param":{"num_deleted":"0","num_feature":"19","num_nodes":"13","size_leaf_vector":"1"}},{"base_weights":[-2.6331585E-2,5.1185066E-1,-4.323457E-2,3.2593352E-3,5.810633E-1,5.7095205E-3,5.046194E-2],"categories":[],"categories_nodes":[],"categories_segments":[],"categories_sizes":[],"default_left":[0,0,0,0,0,0,0],"id":49,"left_children":[1,3,-1,-1,5,-1,-1],"loss_changes":[8.517081E0,4.6752882E-1,0E0,0E0,2.858734E-1,0E0,0E0],"parents":[2147483647,0,0,1,1,4,4],"right_children":[2,4,-1,-1,6,-1,-1],"split_conditions":[4.3E1,9.5E1,-4.323457E-2,3.2593352E-3,1.54E2,5.7095205E-3,5.046194E-2],"split_indices":[5,2,0,0,10,0,0],"split_type":[0,0,0,0,0,0,0],"sum_hessian":[2.8783382E1,1.4064472E1,1.4718909E1,2.0050893E0,1.2059383E1,1.2880898E0,1.0771294E1],"tree_param":{"num_deleted":"0","num_feature":"19","num_nodes":"7","size_leaf_vector":"1"}},{"base_weights":[8.465728E-4,-3.7529537E-1,1.4498092E-1,1.8041654E-2,-4.081173E-2,3.335606E-1,-3.851865E-2,3.2289527E-2,-1.8536817E-2],"categories":[],"categories_nodes":[],"categories_segments":[],"categories_sizes":[],"default_left":[0,0,0,0,0,0,0,0,0],"id":50,"left_children":[1,3,5,-1,-1,7,-1,-1,-1],"loss_changes":[1.8944516E0,8.9942074E-1,3.1446126E0,0E0,0E0,8.857682E-1,0E0,0E0,0E0],"parents":[2147483647,0,0,1,1,2,2,5,5],"right_children":[2,4,6,-1,-1,8,-1,-1,-1],"split_conditions":[4E1,9.4E1,6.9E1,1.8041654E-2,-4.081173E-2,1.88E2,-3.851865E-2,3.2289527E-2,-1.8536817E-2],"split_indices":[5,2,5,0,0,7,0,0,0],"split_type":[0,0,0,0,0,0,0,0,0],"sum_hessian":[3.2939716E1,8.681125E0,2.425859E1,1.468043E0,7.213082E0,1.9005163E1,5.2534285E0,1.7163877E1,1.8412848E0],"tree_param":{"num_deleted":"0","num_feature":"19","num_nodes":"9","size_leaf_vector":"1"}},{"base_weights":[1.2456034E-2,4.3026695E-1,-3.6043695E-1,-3.1924188E-2,5.524057E-1,-4.6910572E-1,3.4210153E-2,-1.0779325E-2,5.1008143E-2,-4.012104E-2,-4.0739294E-4],"categories":[],"categories_nodes":[],"categories_segments":[],"categories_sizes":[],"default_left":[0,0,0,0,0,0,0,0,0,0,0],"id":51,"left_children":[1,3,5,-1,7,9,-1,-1,-1,-1,-1],"loss_changes":[5.1966796E0,1.8123991E0,1.711523E0,0E0,9.1243553E-1,2.3777294E-1,0E0,0E0,0E0,0E0,0E0],"parents":[2147483647,0,0,1,1,2,2,4,4,5,5],"right_children":[2,4,6,-1,8,10,-1,-1,-1,-1,-1],"split_conditions":[8.1E1,6.42E0,9.81E0,-3.1924188E-2,1.71E2,2.7E1,3.4210153E-2,-1.0779325E-2,5.1008143E-2,-4.012104E-2,-4.0739294E-4],"split_indices":[1,3,3,0,7,4,0,0,0,0,0],"split_type":[0,0,0,0,0,0,0,0,0,0,0],"sum_hessian":[3.1359663E1,1.4716538E1,1.6643124E1,1.5981225E0,1.3118416E1,1.4981949E1,1.6611753E0,1.3829235E0,1.1735492E1,1.3928359E1,1.0535896E0],"tree_param":{"num_deleted":"0","num_feature":"19","num_nodes":"11","size_leaf_vector":"1"}},{"base_weights":[-3.721513E-2,4.6814528E-1,-4.271989E-2,-1.1038174E-2,5.6734157E-1,2.3786963E-3,4.954358E-2],"categories":[],"categories_nodes":[],"categories_segments":[],"categories_sizes":[],"default_left":[0,0,0,0,0,0,0],"id":52,"left_children":[1,3,-1,-1,5,-1,-1],"loss_changes":[7.475757E0,9.6816254E-1,0E0,0E0,3.422966E-1,0E0,0E0],"parents":[2147483647,0,0,1,1,4,4],"right_children":[2,4,-1,-1,6,-1,-1],"split_conditions":[4.3E1,9.4E1,-4.271989E-2,-1.1038174E-2,2.48E0,2.3786963E-3,4.954358E-2],"split_indices":[5,2,0,0,8,0,0],"split_type":[0,0,0,0,0,0,0],"sum_hessian":[2.7781649E1,1.3800516E1,1.39811325E1,1.8859262E0,1.191459E1,1.1884907E0,1.0726099E1],"tree_param":{"num_deleted":"0","num_feature":"19","num_nodes":"7","size_leaf_vector":"1"}},{"base_weights":[2.474501E-2,-3.9983544E-2,1.3258164E-1,2.7631065E-1,-3.7649292E-2,-1.3053377E-2,3.3483036E-2],"categories":[],"categories_nodes":[],"categories_segments":[],"categories_sizes":[],"default_left":[0,0,0,0,0,0,0],"id":53,"left_children":[1,-1,3,5,-1,-1,-1],"loss_changes":[1.9362073E0,0E0,2.575896E0,1.5317371E0,0E0,0E0,0E0],"parents":[2147483647,0,0,2,2,3,3],"right_children":[2,-1,4,6,-1,-1,-1],"split_conditions":[3.4E1,-3.9983544E-2,6.9E1,1.24E2,-3.7649292E-2,-1.3053377E-2,3.3483036E-2],"split_indices":[5,0,5,6,0,0,0],"split_type":[0,0,0,0,0,0,0],"sum_hessian":[3.2058582E1,4.847008E0,2.7211575E1,2.241297E1,4.7986035E0,5.4439883E0,1.696898E1],"tree_param":{"num_deleted":"0","num_feature":"19","num_nodes":"7","size_leaf_vector":"1"}},{"base_weights":[1.43922195E-2,-2.9070124E-1,5.2969486E-1,-4.187661E-2,4.8830934E-2,4.376425E-3,5.767562E-1,3.6829375E-2,-2.2671089E-2,5.0095495E-2,1.4690502E-2],"categories":[],"categories_nodes":[],"categories_segments":[],"categories_sizes":[],"default_left":[0,0,0,0,0,0,0,0,0,0,0],"id":54,"left_children":[1,3,5,-1,7,-1,9,-1,-1,-1,-1],"loss_changes":[4.9241266E0,1.5826992E0,2.2859788E-1,0E0,1.3511487E0,0E0,8.8768244E-2,0E0,0E0,0E0,0E0],"parents":[2147483647,0,0,1,1,2,2,4,4,6,6],"right_children":[2,4,6,-1,8,-1,10,-1,-1,-1,-1],"split_conditions":[6.3E1,5.1E1,1.567E3,-4.187661E-2,9.5E1,4.376425E-3,1.9E2,3.6829375E-2,-2.2671089E-2,5.0095495E-2,1.4690502E-2],"split_indices":[0,5,11,0,2,0,10,0,0,0,0],"split_type":[0,0,0,0,0,0,0,0,0,0,0],"sum_hessian":[2.9341442E1,1.8703554E1,1.0637887E1,1.0775216E1,7.928338E0,1.1539109E0,9.483976E0,3.3691182E0,4.55922E0,7.897911E0,1.5860652E0],"tree_param":{"num_deleted":"0","num_feature":"19","num_nodes":"11","size_leaf_vector":"1"}},{"base_weights":[-5.4878375E-4,4.7103068E-1,-4.218374E-2,-1.0945691E-2,5.642137E-1,3.8794272E-3,4.894637E-2],"categories":[],"categories_nodes":[],"categories_segments":[],"categories_sizes":[],"default_left":[0,0,0,0,0,0,0],"id":55,"left_children":[1,3,-1,-1,5,-1,-1],"loss_changes":[7.3182697E0,9.5770216E-1,0E0,0E0,3.0611992E-1,0E0,0E0],"parents":[2147483647,0,0,1,1,4,4],"right_children":[2,4,-1,-1,6,-1,-1],"split_conditions":[4.3E1,9.4E1,-4.218374E-2,-1.0945691E-2,1.54E2,3.8794272E-3,4.894637E-2],"split_indices":[5,2,0,0,10,0,0],"split_type":[0,0,0,0,0,0,0],"sum_hessian":[2.7461342E1,1.4545251E1,1.2916092E1,1.8711374E0,1.2674113E1,1.2418835E0,1.143223E1],"tree_param":{"num_deleted":"0","num_feature":"19","num_nodes":"7","size_leaf_vector":"1"}},{"base_weights":[4.9313612E-2,-3.8611613E-2,1.4465696E-1,2.6723212E-1,-3.5986226E-2,6.4283996E-3,4.7248468E-2],"categories":[],"categories_nodes":[],"categories_segments":[],"categories_sizes":[],"default_left":[0,0,0,0,0,0,0],"id":56,"left_children":[1,-1,3,5,-1,-1,-1],"loss_changes":[1.6225389E0,0E0,2.068049E0,1.3296852E0,0E0,0E0,0E0],"parents":[2147483647,0,0,2,2,3,3],"right_children":[2,-1,4,6,-1,-1,-1],"split_conditions":[3.4E1,-3.8611613E-2,6.8E1,1.81E2,-3.5986226E-2,6.4283996E-3,4.7248468E-2],"split_indices":[5,0,5,10,0,0,0],"split_type":[0,0,0,0,0,0,0],"sum_hessian":[2.9614353E1,3.8836617E0,2.573069E1,2.1788633E1,3.942057E0,1.4599878E1,7.188755E0],"tree_param":{"num_deleted":"0","num_feature":"19","num_nodes":"7","size_leaf_vector":"1"}},{"base_weights":[2.0523535E-2,-4.1856423E-2,3.148845E-1,-3.675365E-2,4.5799676E-1,4.6224475E-2,-3.0214645E-2],"categories":[],"categories_nodes":[],"categories_segments":[],"categories_sizes":[],"default_left":[0,0,0,0,0,0,0],"id":57,"left_children":[1,-1,3,-1,5,-1,-1],"loss_changes":[4.9444675E0,0E0,2.426534E0,0E0,1.9583397E0,0E0,0E0],"parents":[2147483647,0,0,2,2,4,4],"right_children":[2,-1,4,-1,6,-1,-1],"split_conditions":[6.63E0,-4.1856423E-2,1.514E3,-3.675365E-2,8.8E1,4.6224475E-2,-3.0214645E-2],"split_indices":[3,0,11,0,1,0,0],"split_type":[0,0,0,0,0,0,0],"sum_hessian":[2.886343E1,9.864604E0,1.8998827E1,2.6189344E0,1.6379892E1,1.4595897E1,1.7839955E0],"tree_param":{"num_deleted":"0","num_feature":"19","num_nodes":"7","size_leaf_vector":"1"}},{"base_weights":[9.51668E-3,5.0876933E-1,-4.1652117E-2,4.227956E-2,4.8366655E-2,2.7700773E-2,-2.0446548E-2],"categories":[],"categories_nodes":[],"categories_segments":[],"categories_sizes":[],"default_left":[0,0,0,0,0,0,0],"id":58,"left_children":[1,3,-1,5,-1,-1,-1],"loss_changes":[6.9769373E0,5.8077455E-1,0E0,3.95145E-1,0E0,0E0,0E0],"parents":[2147483647,0,0,1,1,3,3],"right_children":[2,4,-1,6,-1,-1,-1],"split_conditions":[4.2E1,4.7E1,-4.1652117E-2,5E0,4.8366655E-2,2.7700773E-2,-2.0446548E-2],"split_indices":[5,0,0,4,0,0,0],"split_type":[0,0,0,0,0,0,0],"sum_hessian":[2.4358341E1,1.2565722E1,1.179262E1,2.386724E0,1.0178998E1,1.1008126E0,1.2859113E0],"tree_param":{"num_deleted":"0","num_feature":"19","num_nodes":"7","size_leaf_vector":"1"}},{"base_weights":[6.0317544E-3,1.1175348E-1,-4.458294E-1,-3.0396292E-1,3.2010266E-1,-9.822657E-4,-4.206188E-2,1.4899375E-2,-3.570131E-2,3.617692E-2,-2.6298773E-2],"categories":[],"categories_nodes":[],"categories_segments":[],"categories_sizes":[],"default_left":[0,0,0,0,0,0,0,0,0,0,0],"id":59,"left_children":[1,3,5,7,9,-1,-1,-1,-1,-1,-1],"loss_changes":[1.6406077E0,2.50392E0,2.1932948E-1,7.659978E-1,1.7769563E0,0E0,0E0,0E0,0E0,0E0,0E0],"parents":[2147483647,0,0,1,1,2,2,3,3,4,4],"right_children":[2,4,6,8,10,-1,-1,-1,-1,-1,-1],"split_conditions":[9.88E0,1.24E2,1.571E3,4.7E1,1.92E2,-9.822657E-4,-4.206188E-2,1.4899375E-2,-3.570131E-2,3.617692E-2,-2.6298773E-2],"split_indices":[3,6,11,0,7,0,0,0,0,0,0],"split_type":[0,0,0,0,0,0,0,0,0,0,0],"sum_hessian":[3.2299847E1,2.678553E1,5.514315E0,8.789349E0,1.7996181E1,1.0381004E0,4.476215E0,1.9079835E0,6.8813653E0,1.5203634E1,2.7925472E0],"tree_param":{"num_deleted":"0","num_feature":"19","num_nodes":"11","size_leaf_vector":"1"}},{"base_weights":[-1.0577139E-3,4.448099E-1,-3.55874E-1,-3.0931806E-2,5.5890995E-1,-4.7257563E-1,2.362639E-2,-4.3032924E-3,5.2221645E-2,-4.2013217E-2,-9.222625E-4],"categories":[],"categories_nodes":[],"categories_segments":[],"categories_sizes":[],"default_left":[0,0,0,0,0,0,0,0,0,0,0],"id":60,"left_children":[1,3,5,-1,7,9,-1,-1,-1,-1,-1],"loss_changes":[4.5524735E0,1.4259806E0,1.3572421E0,0E0,7.0354056E-1,3.3272243E-1,0E0,0E0,0E0,0E0,0E0],"parents":[2147483647,0,0,1,1,2,2,4,4,5,5],"right_children":[2,4,6,-1,8,10,-1,-1,-1,-1,-1],"split_conditions":[8.1E1,1.69E2,6.3E1,-3.0931806E-2,6.67E0,1.86E2,2.362639E-2,-4.3032924E-3,5.2221645E-2,-4.2013217E-2,-9.222625E-4],"split_indices":[1,7,0,0,3,7,0,0,0,0,0],"split_type":[0,0,0,0,0,0,0,0,0,0,0],"sum_hessian":[2.6775896E1,1.1753116E1,1.502278E1,1.1300037E0,1.0623112E1,1.2972326E1,2.0504537E0,1.4678986E0,9.155213E0,1.1519302E1,1.4530243E0],"tree_param":{"num_deleted":"0","num_feature":"19","num_nodes":"11","size_leaf_vector":"1"}},{"base_weights":[9.012501E-3,4.8002473E-1,-4.1089993E-2,4.85793E-2,-1.4958429E-2,2.6656553E-2,-2.2119608E-2],"categories":[],"categories_nodes":[],"categories_segments":[],"categories_sizes":[],"default_left":[0,0,0,0,0,0,0],"id":61,"left_children":[1,3,-1,-1,5,-1,-1],"loss_changes":[6.282266E0,8.537102E-1,0E0,0E0,4.3072438E-1,0E0,0E0],"parents":[2147483647,0,0,1,1,4,4],"right_children":[2,4,-1,-1,6,-1,-1],"split_conditions":[4.3E1,1.7E2,-4.1089993E-2,4.85793E-2,3.7E1,2.6656553E-2,-2.2119608E-2],"split_indices":[5,7,0,0,5,0,0],"split_type":[0,0,0,0,0,0,0],"sum_hessian":[2.3518616E1,1.241315E1,1.1105467E1,9.694704E0,2.7184463E0,1.0485501E0,1.6698961E0],"tree_param":{"num_deleted":"0","num_feature":"19","num_nodes":"7","size_leaf_vector":"1"}},{"base_weights":[3.790303E-3,-3.824188E-2,9.5614046E-2,2.3597838E-1,-4.2851043E-1,2.5685124E-2,-3.580044E-2,-8.7247236E-4,-4.0991407E-2],"categories":[],"categories_nodes":[],"categories_segments":[],"categories_sizes":[],"default_left":[0,0,0,0,0,0,0,0,0],"id":62,"left_children":[1,-1,3,5,7,-1,-1,-1,-1],"loss_changes":[1.3934399E0,0E0,2.0447862E0,1.3930674E0,2.0234656E-1,0E0,0E0,0E0,0E0],"parents":[2147483647,0,0,2,2,3,3,4,4],"right_children":[2,-1,4,6,8,-1,-1,-1,-1],"split_conditions":[3.4E1,-3.824188E-2,9.88E0,1.92E2,1.571E3,2.5685124E-2,-3.580044E-2,-8.7247236E-4,-4.0991407E-2],"split_indices":[5,0,3,7,11,0,0,0,0],"split_type":[0,0,0,0,0,0,0,0,0],"sum_hessian":[2.9462814E1,4.042947E0,2.5419868E1,2.0483898E1,4.9359703E0,1.8687746E1,1.7961504E0,1.0146393E0,3.9213312E0],"tree_param":{"num_deleted":"0","num_feature":"19","num_nodes":"9","size_leaf_vector":"1"}},{"base_weights":[7.946233E-2,-3.963118E-2,3.3726376E-1,4.3637928E-1,-2.9944915E-2,4.040555E-2,4.627697E-3],"categories":[],"categories_nodes":[],"categories_segments":[],"categories_sizes":[],"default_left":[0,0,0,0,0,0,0],"id":63,"left_children":[1,-1,3,5,-1,-1,-1],"loss_changes":[4.080142E0,0E0,1.4909737E0,4.1240335E-1,0E0,0E0,0E0],"parents":[2147483647,0,0,2,2,3,3],"right_children":[2,-1,4,6,-1,-1,-1],"split_conditions":[6.63E0,-3.963118E-2,8.8E1,1.91E2,-2.9944915E-2,4.040555E-2,4.627697E-3],"split_indices":[3,0,1,10,0,0,0],"split_type":[0,0,0,0,0,0,0],"sum_hessian":[2.5404358E1,7.5802135E0,1.7824144E1,1.5984413E1,1.8397317E0,1.324639E1,2.7380228E0],"tree_param":{"num_deleted":"0","num_feature":"19","num_nodes":"7","size_leaf_vector":"1"}},{"base_weights":[-5.9353426E-2,4.0641767E-1,-4.098072E-2,5.2821845E-1,-1.1370529E-2,4.718887E-2,1.0341767E-3],"categories":[],"categories_nodes":[],"categories_segments":[],"categories_sizes":[],"default_left":[0,0,0,0,0,0,0],"id":64,"left_children":[1,3,-1,5,-1,-1,-1],"loss_changes":[5.305469E0,9.082513E-1,0E0,3.232379E-1,0E0,0E0,0E0],"parents":[2147483647,0,0,1,1,3,3],"right_children":[2,4,-1,6,-1,-1,-1],"split_conditions":[4.3E1,1.7E2,-4.098072E-2,1.833E3,-1.1370529E-2,4.718887E-2,1.0341767E-3],"split_indices":[5,7,0,11,0,0,0],"split_type":[0,0,0,0,0,0,0],"sum_hessian":[2.3163404E1,1.1470111E1,1.1693294E1,9.416351E0,2.053759E0,8.28101E0,1.1353422E0],"tree_param":{"num_deleted":"0","num_feature":"19","num_nodes":"7","size_leaf_vector":"1"}},{"base_weights":[-2.026579E-2,-4.0782418E-2,7.022998E-2,-3.3419433E-1,2.377295E-1,1.620499E-2,-3.8310137E-2,2.7289255E-2,-2.6018672E-2],"categories":[],"categories_nodes":[],"categories_segments":[],"categories_sizes":[],"default_left":[0,0,0,0,0,0,0,0,0],"id":65,"left_children":[1,-1,3,5,7,-1,-1,-1,-1],"loss_changes":[1.3837165E0,0E0,1.8785863E0,7.3334575E-1,1.2380401E0,0E0,0E0,0E0,0E0],"parents":[2147483647,0,0,2,2,3,3,4,4],"right_children":[2,-1,4,6,8,-1,-1,-1,-1],"split_conditions":[7.7E1,-4.0782418E-2,4E1,9.4E1,9.88E0,1.620499E-2,-3.8310137E-2,2.7289255E-2,-2.6018672E-2],"split_indices":[1,0,5,2,3,0,0,0,0],"split_type":[0,0,0,0,0,0,0,0,0],"sum_hessian":[2.9427668E1,3.868544E0,2.5559124E1,7.194046E0,1.8365078E1,1.4424937E0,5.751552E0,1.5848607E1,2.5164711E0],"tree_param":{"num_deleted":"0","num_feature":"19","num_nodes":"9","size_leaf_vector":"1"}},{"base_weights":[6.1541233E-2,2.8942E-1,-3.9168663E-2,-3.335931E-2,4.2699638E-1,4.3368734E-2,-7.50458E-3],"categories":[],"categories_nodes":[],"categories_segments":[],"categories_sizes":[],"default_left":[0,0,0,0,0,0,0],"id":66,"left_children":[1,3,-1,-1,5,-1,-1],"loss_changes":[3.3280547E0,1.9835018E0,0E0,0E0,1.01266E0,0E0,0E0],"parents":[2147483647,0,0,1,1,4,4],"right_children":[2,4,-1,-1,6,-1,-1],"split_conditions":[8.8E1,1.453E3,-3.9168663E-2,-3.335931E-2,1.91E2,4.3368734E-2,-7.50458E-3],"split_indices":[1,11,0,0,10,0,0],"split_type":[0,0,0,0,0,0,0],"sum_hessian":[2.4369997E1,1.7577337E1,6.7926617E0,2.5341728E0,1.5043163E1,1.2286565E1,2.7565987E0],"tree_param":{"num_deleted":"0","num_feature":"19","num_nodes":"7","size_leaf_vector":"1"}},{"base_weights":[1.0086397E-2,4.27559E-1,-4.0400904E-2,-1.1104233E-2,5.218232E-1,1.9794144E-4,4.578556E-2],"categories":[],"categories_nodes":[],"categories_segments":[],"categories_sizes":[],"default_left":[0,0,0,0,0,0,0],"id":67,"left_children":[1,3,-1,-1,5,-1,-1],"loss_changes":[5.519812E0,8.286617E-1,0E0,0E0,3.225658E-1,0E0,0E0],"parents":[2147483647,0,0,1,1,4,4],"right_children":[2,4,-1,-1,6,-1,-1],"split_conditions":[4.3E1,9.4E1,-4.0400904E-2,-1.1104233E-2,5.61E0,1.9794144E-4,4.578556E-2],"split_indices":[5,2,0,0,9,0,0],"split_type":[0,0,0,0,0,0,0],"sum_hessian":[2.366476E1,1.3164907E1,1.0499852E1,1.8110713E0,1.1353836E1,1.0990655E0,1.0254771E1],"tree_param":{"num_deleted":"0","num_feature":"19","num_nodes":"7","size_leaf_vector":"1"}},{"base_weights":[2.2920014E-2,-2.896565E-1,1.594217E-1,1.5336132E-2,-4.303281E-1,2.9587805E-1,-3.41091E-2,-4.066563E-2,4.9148884E-4,-3.0386733E-2,2.9559245E-2],"categories":[],"categories_nodes":[],"categories_segments":[],"categories_sizes":[],"default_left":[0,0,0,0,0,0,0,0,0,0,0],"id":68,"left_children":[1,3,5,-1,7,9,-1,-1,-1,-1,-1],"loss_changes":[1.3255703E0,7.236964E-1,1.8460177E0,0E0,2.6306486E-1,1.0377325E0,0E0,0E0,0E0,0E0,0E0],"parents":[2147483647,0,0,1,1,2,2,4,4,5,5],"right_children":[2,4,6,-1,8,10,-1,-1,-1,-1,-1],"split_conditions":[1.24E2,4.7E1,6.9E1,1.5336132E-2,1.833E3,5.04E0,-3.41091E-2,-4.066563E-2,4.9148884E-4,-3.0386733E-2,2.9559245E-2],"split_indices":[6,0,5,0,11,3,0,0,0,0,0],"split_type":[0,0,0,0,0,0,0,0,0,0,0],"sum_hessian":[2.8985382E1,8.469346E0,2.0516035E1,1.833299E0,6.6360474E0,1.7041248E1,3.4747865E0,5.4903708E0,1.1456766E0,1.2654425E0,1.5775806E1],"tree_param":{"num_deleted":"0","num_feature":"19","num_nodes":"11","size_leaf_vector":"1"}},{"base_weights":[3.7236188E-2,-2.59036E-1,4.8177576E-1,2.201448E-1,-4.504487E-1,-2.7553916E-3,4.6580248E-2,4.1335836E-2,-4.6095834E-3,-4.079737E-2,-7.079298E-4],"categories":[],"categories_nodes":[],"categories_segments":[],"categories_sizes":[],"default_left":[0,0,0,0,0,0,0,0,0,0,0],"id":69,"left_children":[1,3,5,7,9,-1,-1,-1,-1,-1,-1],"loss_changes":[3.5278504E0,1.5809461E0,5.7417464E-1,4.6494645E-1,3.0752897E-1,0E0,0E0,0E0,0E0,0E0,0E0],"parents":[2147483647,0,0,1,1,2,2,3,3,4,4],"right_children":[2,4,6,8,10,-1,-1,-1,-1,-1,-1],"split_conditions":[6.3E1,8.1E1,1.605E3,9.6E1,1.86E2,-2.7553916E-3,4.6580248E-2,4.1335836E-2,-4.6095834E-3,-4.079737E-2,-7.079298E-4],"split_indices":[0,1,11,2,7,0,0,0,0,0,0],"split_type":[0,0,0,0,0,0,0,0,0,0,0],"sum_hessian":[2.4838507E1,1.5155271E1,9.683237E0,4.28304E0,1.0872231E1,1.6847551E0,7.9984818E0,1.6554313E0,2.6276088E0,9.444491E0,1.4277393E0],"tree_param":{"num_deleted":"0","num_feature":"19","num_nodes":"11","size_leaf_vector":"1"}},{"base_weights":[-4.1681333E-3,3.8750118E-1,-3.961746E-2,4.9061275E-1,-7.477235E-3,4.381177E-2,4.7018202E-5],"categories":[],"categories_nodes":[],"categories_segments":[],"categories_sizes":[],"default_left":[0,0,0,0,0,0,0],"id":70,"left_children":[1,3,-1,5,-1,-1,-1],"loss_changes":[4.3430333E0,6.691302E-1,0E0,2.9338932E-1,0E0,0E0,0E0],"parents":[2147483647,0,0,1,1,3,3],"right_children":[2,4,-1,6,-1,-1,-1],"split_conditions":[1.2E1,1.68E2,-3.961746E-2,1.833E3,-7.477235E-3,4.381177E-2,4.7018202E-5],"split_indices":[4,7,0,11,0,0,0],"split_type":[0,0,0,0,0,0,0],"sum_hessian":[2.0583485E1,1.1567743E1,9.015741E0,9.50909E0,2.0586529E0,8.412376E0,1.0967135E0],"tree_param":{"num_deleted":"0","num_feature":"19","num_nodes":"7","size_leaf_vector":"1"}},{"base_weights":[-7.1722725E-3,-2.7884984E-1,1.1967108E-1,1.9561283E-2,-4.2325395E-1,2.9075614E-1,-3.8820153E-1,-4.1542076E-2,6.8243705E-3,3.4250945E-2,-2.5253918E-2,-3.9769873E-2,3.4946739E-3],"categories":[],"categories_nodes":[],"categories_segments":[],"categories_sizes":[],"default_left":[0,0,0,0,0,0,0,0,0,0,0,0,0],"id":71,"left_children":[1,3,5,-1,7,9,11,-1,-1,-1,-1,-1,-1],"loss_changes":[1.0008644E0,8.01536E-1,1.8366848E0,0E0,4.156766E-1,1.4191376E0,2.7702796E-1,0E0,0E0,0E0,0E0,0E0,0E0],"parents":[2147483647,0,0,1,1,2,2,4,4,5,5,6,6],"right_children":[2,4,6,-1,8,10,12,-1,-1,-1,-1,-1,-1],"split_conditions":[1.23E2,4.7E1,1.88E2,1.9561283E-2,4.53E0,9.88E0,2.06E2,-4.1542076E-2,6.8243705E-3,3.4250945E-2,-2.5253918E-2,-3.9769873E-2,3.4946739E-3],"split_indices":[6,0,7,0,8,3,7,0,0,0,0,0,0],"split_type":[0,0,0,0,0,0,0,0,0,0,0,0,0],"sum_hessian":[2.7075455E1,8.236293E0,1.8839163E1,1.6311641E0,6.605129E0,1.4411814E1,4.427349E0,5.5383477E0,1.0667809E0,1.1989676E1,2.4221373E0,3.4150214E0,1.0123276E0],"tree_param":{"num_deleted":"0","num_feature":"19","num_nodes":"13","size_leaf_vector":"1"}},{"base_weights":[-7.161412E-2,-4.8336104E-1,2.9704353E-1,-4.2024154E-2,-3.3076534E-3,-3.0725772E-2,4.2568466E-1,-8.9603355E-3,4.2282555E-2],"categories":[],"categories_nodes":[],"categories_segments":[],"categories_sizes":[],"default_left":[0,0,0,0,0,0,0,0,0],"id":72,"left_children":[1,3,5,-1,-1,-1,7,-1,-1],"loss_changes":[3.7515645E0,1.934936E-1,1.3165722E0,0E0,0E0,0E0,6.9756365E-1,0E0,0E0],"parents":[2147483647,0,0,1,1,2,2,6,6],"right_children":[2,4,6,-1,-1,-1,8,-1,-1],"split_conditions":[1.36E2,9.13E0,7.18E0,-4.2024154E-2,-3.3076534E-3,-3.0725772E-2,1.9E1,-8.9603355E-3,4.2282555E-2],"split_indices":[6,3,3,0,0,0,4,0,0],"split_type":[0,0,0,0,0,0,0,0,0],"sum_hessian":[2.276901E1,1.0608942E1,1.2160069E1,9.517448E0,1.0914935E0,1.6163542E0,1.0543715E1,1.6786499E0,8.865065E0],"tree_param":{"num_deleted":"0","num_feature":"19","num_nodes":"9","size_leaf_vector":"1"}},{"base_weights":[-5.6117825E-2,4.448472E-1,-4.7316486E-1,-3.9925594E-3,4.2394146E-2,-9.792193E-3,-3.9665233E-2],"categories":[],"categories_nodes":[],"categories_segments":[],"categories_sizes":[],"default_left":[0,0,0,0,0,0,0],"id":73,"left_children":[1,3,5,-1,-1,-1,-1],"loss_changes":[4.416606E0,4.3312526E-1,3.0446053E-2,0E0,0E0,0E0,0E0],"parents":[2147483647,0,0,1,1,2,2],"right_children":[2,4,6,-1,-1,-1,-1],"split_conditions":[4E1,9.4E1,3.24E0,-3.9925594E-3,4.2394146E-2,-9.792193E-3,-3.9665233E-2],"split_indices":[5,2,8,0,0,0,0],"split_type":[0,0,0,0,0,0,0],"sum_hessian":[1.9132105E1,8.66131E0,1.0470794E1,1.3315426E0,7.329767E0,1.0235913E0,9.447203E0],"tree_param":{"num_deleted":"0","num_feature":"19","num_nodes":"7","size_leaf_vector":"1"}},{"base_weights":[-3.948704E-3,1.19259484E-1,-3.9489892E-1,-3.5759117E-2,2.4598782E-1,-3.9395563E-2,4.7136303E-3,6.961056E-3,4.1194562E-2],"categories":[],"categories_nodes":[],"categories_segments":[],"categories_sizes":[],"default_left":[0,0,0,0,0,0,0,0,0],"id":74,"left_children":[1,3,5,-1,7,-1,-1,-1,-1],"loss_changes":[1.2718742E0,1.5524694E0,3.0901343E-1,0E0,6.8506515E-1,0E0,0E0,0E0,0E0],"parents":[2147483647,0,0,1,1,2,2,4,4],"right_children":[2,4,6,-1,8,-1,-1,-1,-1],"split_conditions":[6.3E1,3.4E1,1.068E1,-3.5759117E-2,1.81E2,-3.9395563E-2,4.7136303E-3,6.961056E-3,4.1194562E-2],"split_indices":[0,5,9,0,10,0,0,0,0],"split_type":[0,0,0,0,0,0,0,0,0],"sum_hessian":[2.4427086E1,1.9102022E1,5.3250637E0,3.031136E0,1.6070887E1,4.3129177E0,1.0121461E0,1.0932282E1,5.138604E0],"tree_param":{"num_deleted":"0","num_feature":"19","num_nodes":"9","size_leaf_vector":"1"}},{"base_weights":[-1.9488212E-3,-3.7874144E-1,3.2183862E-1,-3.5166264E-2,-3.866754E-2,4.5547378E-1,-1.998234E-1,-2.7867313E-2,3.1557843E-2,5.0872946E-3,4.3639664E-2,7.0563355E-3,-2.9391702E-2],"categories":[],"categories_nodes":[],"categories_segments":[],"categories_sizes":[],"default_left":[0,0,0,0,0,0,0,0,0,0,0,0,0],"id":75,"left_children":[1,3,5,7,-1,9,11,-1,-1,-1,-1,-1,-1],"loss_changes":[3.1093135E0,4.0623808E-1,1.0467985E0,6.5235025E-1,0E0,3.611083E-1,2.0090277E-1,0E0,0E0,0E0,0E0,0E0,0E0],"parents":[2147483647,0,0,1,1,2,2,3,3,5,5,6,6],"right_children":[2,4,6,8,-1,10,12,-1,-1,-1,-1,-1,-1],"split_conditions":[1.36E2,1.65E2,8.5E1,3.85E0,-3.866754E-2,1.9E1,1.7E1,-2.7867313E-2,3.1557843E-2,5.0872946E-3,4.3639664E-2,7.0563355E-3,-2.9391702E-2],"split_indices":[6,10,1,8,0,4,4,0,0,0,0,0,0],"split_type":[0,0,0,0,0,0,0,0,0,0,0,0,0],"sum_hessian":[2.3486902E1,1.0776513E1,1.271039E1,2.827052E0,7.949461E0,1.0219357E1,2.491033E0,1.7445953E0,1.0824568E0,2.2277853E0,7.9915714E0,1.0904254E0,1.4006076E0],"tree_param":{"num_deleted":"0","num_feature":"19","num_nodes":"13","size_leaf_vector":"1"}},{"base_weights":[-4.8851587E-2,3.628457E-1,-3.932001E-2,-1.0301915E-2,4.7011548E-1,-1.4738346E-3,4.2760897E-2],"categories":[],"categories_nodes":[],"categories_segments":[],"categories_sizes":[],"default_left":[0,0,0,0,0,0,0],"id":76,"left_children":[1,3,-1,-1,5,-1,-1],"loss_changes":[3.8127875E0,6.3579845E-1,0E0,0E0,2.983172E-1,0E0,0E0],"parents":[2147483647,0,0,1,1,4,4],"right_children":[2,4,-1,-1,6,-1,-1],"split_conditions":[4.3E1,9.4E1,-3.932001E-2,-1.0301915E-2,1.54E2,-1.4738346E-3,4.2760897E-2],"split_indices":[5,2,0,0,10,0,0],"split_type":[0,0,0,0,0,0,0],"sum_hessian":[1.8943506E1,9.908304E0,9.035202E0,1.7388142E0,8.16949E0,1.0345776E0,7.1349125E0],"tree_param":{"num_deleted":"0","num_feature":"19","num_nodes":"7","size_leaf_vector":"1"}},{"base_weights":[2.608675E-2,1.1673352E-1,-4.0287375E-1,-2.671007E-1,3.1203076E-1,-4.5483364E-3,-3.8183507E-2,1.9509358E-2,-3.3169627E-2,3.3071205E-2,-2.1436878E-2],"categories":[],"categories_nodes":[],"categories_segments":[],"categories_sizes":[],"default_left":[0,0,0,0,0,0,0,0,0,0,0],"id":77,"left_children":[1,3,5,7,9,-1,-1,-1,-1,-1,-1],"loss_changes":[1.1653677E0,1.9213238E0,1.07851684E-1,7.649766E-1,1.0932151E0,0E0,0E0,0E0,0E0,0E0,0E0],"parents":[2147483647,0,0,1,1,2,2,3,3,4,4],"right_children":[2,4,6,8,10,-1,-1,-1,-1,-1,-1],"split_conditions":[9.88E0,1.23E2,1.37E2,4.7E1,1.92E2,-4.5483364E-3,-3.8183507E-2,1.9509358E-2,-3.3169627E-2,3.3071205E-2,-2.1436878E-2],"split_indices":[3,6,6,0,7,0,0,0,0,0,0],"split_type":[0,0,0,0,0,0,0,0,0,0,0],"sum_hessian":[2.7760986E1,2.3518904E1,4.242082E0,7.8071632E0,1.5711741E1,1.0631027E0,3.1789796E0,1.6027076E0,6.2044554E0,1.3618944E1,2.0927973E0],"tree_param":{"num_deleted":"0","num_feature":"19","num_nodes":"11","size_leaf_vector":"1"}},{"base_weights":[2.813583E-2,-3.893554E-2,2.8868684E-1,3.868464E-1,-2.8798627E-2,-2.4114849E-2,3.755375E-2],"categories":[],"categories_nodes":[],"categories_segments":[],"categories_sizes":[],"default_left":[0,0,0,0,0,0,0],"id":78,"left_children":[1,-1,3,5,-1,-1,-1],"loss_changes":[3.141824E0,0E0,1.1251584E0,9.332533E-1,0E0,0E0,0E0],"parents":[2147483647,0,0,2,2,3,3],"right_children":[2,-1,4,6,-1,-1,-1],"split_conditions":[6.76E0,-3.893554E-2,8.8E1,1.453E3,-2.8798627E-2,-2.4114849E-2,3.755375E-2],"split_indices":[3,0,1,11,0,0,0],"split_type":[0,0,0,0,0,0,0],"sum_hessian":[2.137463E1,6.8908553E0,1.4483775E1,1.2930679E1,1.5530958E0,1.1012369E0,1.1829443E1],"tree_param":{"num_deleted":"0","num_feature":"19","num_nodes":"7","size_leaf_vector":"1"}},{"base_weights":[2.870166E-2,4.3735757E-1,-3.8807716E-2,5.061221E-1,6.9039926E-2,4.3431144E-2,9.750764E-3,-1.0389793E-2,1.882959E-2],"categories":[],"categories_nodes":[],"categories_segments":[],"categories_sizes":[],"default_left":[0,0,0,0,0,0,0,0,0],"id":79,"left_children":[1,3,-1,5,7,-1,-1,-1,-1],"loss_changes":[4.4956417E0,2.6617002E-1,0E0,7.313275E-2,1.3076271E-1,0E0,0E0,0E0,0E0],"parents":[2147483647,0,0,1,1,3,3,4,4],"right_children":[2,4,-1,6,8,-1,-1,-1,-1],"split_conditions":[4.3E1,4E1,-3.8807716E-2,6.21E0,1.44E3,4.3431144E-2,9.750764E-3,-1.0389793E-2,1.882959E-2],"split_indices":[5,5,0,3,11,0,0,0,0],"split_type":[0,0,0,0,0,0,0,0,0],"sum_hessian":[1.9400768E1,1.088891E1,8.511859E0,8.860516E0,2.0283942E0,7.709868E0,1.1506476E0,1.0235404E0,1.0048538E0],"tree_param":{"num_deleted":"0","num_feature":"19","num_nodes":"9","size_leaf_vector":"1"}},{"base_weights":[-6.9478718E-3,-4.0712833E-1,1.2848726E-1,-3.8111575E-2,-1.3279043E-3,2.884214E-1,-3.9744252E-1,2.9531833E-2,-1.7165609E-2,-6.2946E-3,-3.702954E-2],"categories":[],"categories_nodes":[],"categories_segments":[],"categories_sizes":[],"default_left":[0,0,0,0,0,0,0,0,0,0,0],"id":80,"left_children":[1,3,5,-1,-1,7,9,-1,-1,-1,-1],"loss_changes":[1.4549218E0,1.7559421E-1,1.8049458E0,0E0,0E0,7.284366E-1,7.007879E-2,0E0,0E0,0E0,0E0],"parents":[2147483647,0,0,1,1,2,2,5,5,6,6],"right_children":[2,4,6,-1,-1,8,10,-1,-1,-1,-1],"split_conditions":[4E1,6.12E0,9.88E0,-3.8111575E-2,-1.3279043E-3,1.92E2,6E1,2.9531833E-2,-1.7165609E-2,-6.2946E-3,-3.702954E-2],"split_indices":[5,3,3,0,0,7,5,0,0,0,0],"split_type":[0,0,0,0,0,0,0,0,0,0,0],"sum_hessian":[2.4879152E1,5.7836595E0,1.9095493E1,4.725629E0,1.0580305E0,1.4988975E1,4.1065183E0,1.3145338E1,1.8436372E0,1.0744389E0,3.0320795E0],"tree_param":{"num_deleted":"0","num_feature":"19","num_nodes":"11","size_leaf_vector":"1"}},{"base_weights":[6.373969E-3,-3.821617E-2,2.172648E-1,-3.3468183E-2,3.4055978E-1,3.415472E-2,-2.5047358E-2],"categories":[],"categories_nodes":[],"categories_segments":[],"categories_sizes":[],"default_left":[0,0,0,0,0,0,0],"id":81,"left_children":[1,-1,3,-1,5,-1,-1],"loss_changes":[2.4583616E0,0E0,1.455359E0,0E0,9.5696604E-1,0E0,0E0],"parents":[2147483647,0,0,2,2,4,4],"right_children":[2,-1,4,-1,6,-1,-1],"split_conditions":[6.63E0,-3.821617E-2,1.514E3,-3.3468183E-2,8.8E1,3.415472E-2,-2.5047358E-2],"split_indices":[3,0,11,0,1,0,0],"split_type":[0,0,0,0,0,0,0],"sum_hessian":[2.2064335E1,6.3116016E0,1.5752733E1,2.1704433E0,1.358229E1,1.2303359E1,1.2789307E0],"tree_param":{"num_deleted":"0","num_feature":"19","num_nodes":"7","size_leaf_vector":"1"}},{"base_weights":[5.8690105E-3,3.6677796E-1,-3.820466E-2,4.7996932E-1,-8.593695E-3,4.374432E-2,-2.5432077E-3],"categories":[],"categories_nodes":[],"categories_segments":[],"categories_sizes":[],"default_left":[0,0,0,0,0,0,0],"id":82,"left_children":[1,3,-1,5,-1,-1,-1],"loss_changes":[3.4875581E0,6.6536784E-1,0E0,3.3940077E-1,0E0,0E0,0E0],"parents":[2147483647,0,0,1,1,3,3],"right_children":[2,4,-1,6,-1,-1,-1],"split_conditions":[4.3E1,1.7E2,-3.820466E-2,1.771E3,-8.593695E-3,4.374432E-2,-2.5432077E-3],"split_indices":[5,7,0,11,0,0,0],"split_type":[0,0,0,0,0,0,0],"sum_hessian":[1.798515E1,1.0435607E1,7.5495434E0,8.414821E0,2.0207863E0,7.382238E0,1.0325825E0],"tree_param":{"num_deleted":"0","num_feature":"19","num_nodes":"7","size_leaf_vector":"1"}},{"base_weights":[3.654148E-2,-3.522526E-2,1.1659568E-1,2.0687878E-1,-3.20321E-2,-1.1604021E-2,2.637613E-2],"categories":[],"categories_nodes":[],"categories_segments":[],"categories_sizes":[],"default_left":[0,0,0,0,0,0,0],"id":83,"left_children":[1,-1,3,5,-1,-1,-1],"loss_changes":[1.0833149E0,0E0,1.2001611E0,9.572076E-1,0E0,0E0,0E0],"parents":[2147483647,0,0,2,2,3,3],"right_children":[2,-1,4,6,-1,-1,-1],"split_conditions":[3.4E1,-3.522526E-2,6.9E1,1.24E2,-3.20321E-2,-1.1604021E-2,2.637613E-2],"split_indices":[5,0,5,6,0,0,0],"split_type":[0,0,0,0,0,0,0],"sum_hessian":[2.6033175E1,3.0952916E0,2.2937883E1,2.0038422E1,2.8994615E0,5.1373115E0,1.490111E1],"tree_param":{"num_deleted":"0","num_feature":"19","num_nodes":"7","size_leaf_vector":"1"}},{"base_weights":[-1.807201E-2,-3.8252607E-2,2.1170086E-1,-3.1694885E-2,3.2003456E-1,3.1556096E-2,-2.3088431E-2],"categories":[],"categories_nodes":[],"categories_segments":[],"categories_sizes":[],"default_left":[0,0,0,0,0,0,0],"id":84,"left_children":[1,-1,3,-1,5,-1,-1],"loss_changes":[2.4586265E0,0E0,1.1518408E0,0E0,7.3725724E-1,0E0,0E0],"parents":[2147483647,0,0,2,2,4,4],"right_children":[2,-1,4,-1,6,-1,-1],"split_conditions":[6.76E0,-3.8252607E-2,1.453E3,-3.1694885E-2,8.8E1,3.1556096E-2,-2.3088431E-2],"split_indices":[3,0,11,0,1,0,0],"split_type":[0,0,0,0,0,0,0],"sum_hessian":[2.1299541E1,6.7342396E0,1.4565302E1,1.8012061E0,1.2764096E1,1.1687066E1,1.0770305E0],"tree_param":{"num_deleted":"0","num_feature":"19","num_nodes":"7","size_leaf_vector":"1"}},{"base_weights":[-4.436466E-3,3.786719E-1,-3.7914667E-2,-2.1138798E-2,4.8841566E-1,2.3439543E-2,-2.421709E-2,4.2753235E-2,6.783459E-3],"categories":[],"categories_nodes":[],"categories_segments":[],"categories_sizes":[],"default_left":[0,0,0,0,0,0,0,0,0],"id":85,"left_children":[1,3,-1,5,7,-1,-1,-1,-1],"loss_changes":[3.331092E0,4.5806396E-1,0E0,3.6787215E-1,1.0411215E-1,0E0,0E0,0E0,0E0],"parents":[2147483647,0,0,1,1,3,3,4,4],"right_children":[2,4,-1,6,8,-1,-1,-1,-1],"split_conditions":[4.3E1,1.62E2,-3.7914667E-2,5E0,1.27E2,2.3439543E-2,-2.421709E-2,4.2753235E-2,6.783459E-3],"split_indices":[5,10,0,4,6,0,0,0,0],"split_type":[0,0,0,0,0,0,0,0,0],"sum_hessian":[1.6521868E1,9.204483E0,7.3173847E0,2.156275E0,7.0482078E0,1.0000427E0,1.1562324E0,6.036227E0,1.0119807E0],"tree_param":{"num_deleted":"0","num_feature":"19","num_nodes":"9","size_leaf_vector":"1"}},{"base_weights":[-8.817588E-3,-3.479049E-2,6.6736385E-2,1.5162657E-1,-3.1679295E-2,1.901599E-4,3.9694525E-2],"categories":[],"categories_nodes":[],"categories_segments":[],"categories_sizes":[],"default_left":[0,0,0,0,0,0,0],"id":86,"left_children":[1,-1,3,5,-1,-1,-1],"loss_changes":[8.66898E-1,0E0,9.62523E-1,1.0343372E0,0E0,0E0,0E0],"parents":[2147483647,0,0,2,2,3,3],"right_children":[2,-1,4,6,-1,-1,-1],"split_conditions":[3.4E1,-3.479049E-2,6.9E1,2.3E1,-3.1679295E-2,1.901599E-4,3.9694525E-2],"split_indices":[5,0,5,4,0,0,0],"split_type":[0,0,0,0,0,0,0],"sum_hessian":[2.5028425E1,3.053461E0,2.1974962E1,1.9136564E1,2.8383994E0,1.4055218E1,5.0813465E0],"tree_param":{"num_deleted":"0","num_feature":"19","num_nodes":"7","size_leaf_vector":"1"}},{"base_weights":[2.2001805E-2,-3.7033573E-2,2.180466E-1,-3.224395E-2,3.37965E-1,5.47812E-3,4.3093465E-2],"categories":[],"categories_nodes":[],"categories_segments":[],"categories_sizes":[],"default_left":[0,0,0,0,0,0,0],"id":87,"left_children":[1,-1,3,-1,5,-1,-1],"loss_changes":[2.1357572E0,0E0,1.3220932E0,0E0,7.1434104E-1,0E0,0E0],"parents":[2147483647,0,0,2,2,4,4],"right_children":[2,-1,4,-1,6,-1,-1],"split_conditions":[6.63E0,-3.7033573E-2,1.514E3,-3.224395E-2,1.81E2,5.47812E-3,4.3093465E-2],"split_indices":[3,0,11,0,7,0,0],"split_type":[0,0,0,0,0,0,0],"sum_hessian":[2.0404203E1,5.4823027E0,1.4921902E1,2.032727E0,1.2889174E1,6.074286E0,6.8148885E0],"tree_param":{"num_deleted":"0","num_feature":"19","num_nodes":"7","size_leaf_vector":"1"}},{"base_weights":[3.8838007E-2,4.033889E-1,-3.7315547E-2,4.7568974E-1,4.4961106E-3,4.138441E-2,7.7537387E-3],"categories":[],"categories_nodes":[],"categories_segments":[],"categories_sizes":[],"default_left":[0,0,0,0,0,0,0],"id":88,"left_children":[1,3,-1,5,-1,-1,-1],"loss_changes":[3.3631792E0,2.380656E-1,0E0,8.53703E-2,0E0,0E0,0E0],"parents":[2147483647,0,0,1,1,3,3],"right_children":[2,4,-1,6,-1,-1,-1],"split_conditions":[4.3E1,4E1,-3.7315547E-2,6.21E0,4.4961106E-3,4.138441E-2,7.7537387E-3],"split_indices":[5,5,0,3,0,0,0],"split_type":[0,0,0,0,0,0,0],"sum_hessian":[1.6236708E1,9.548975E0,6.687733E0,7.596832E0,1.9521426E0,6.5152416E0,1.0815904E0],"tree_param":{"num_deleted":"0","num_feature":"19","num_nodes":"7","size_leaf_vector":"1"}},{"base_weights":[-1.2802144E-2,7.829089E-2,-3.796455E-2,-1.524327E-1,4.164823E-1,-3.1749962E-3,-3.7203353E-2,3.9740823E-2,-2.1397567E-3],"categories":[],"categories_nodes":[],"categories_segments":[],"categories_sizes":[],"default_left":[0,0,0,0,0,0,0,0,0],"id":89,"left_children":[1,3,-1,5,7,-1,-1,-1,-1],"loss_changes":[1.1088456E0,1.7909455E0,0E0,4.7118586E-1,3.4228504E-1,0E0,0E0,0E0,0E0],"parents":[2147483647,0,0,1,1,3,3,4,4],"right_children":[2,4,-1,6,8,-1,-1,-1,-1],"split_conditions":[9.88E0,4.63E0,-3.796455E-2,1.36E2,6.6E1,-3.1749962E-3,-3.7203353E-2,3.9740823E-2,-2.1397567E-3],"split_indices":[3,8,0,6,5,0,0,0,0],"split_type":[0,0,0,0,0,0,0,0,0],"sum_hessian":[2.4478483E1,2.1138765E1,3.3397174E0,1.2892449E1,8.246316E0,1.0303396E1,2.5890539E0,6.879518E0,1.3667982E0],"tree_param":{"num_deleted":"0","num_feature":"19","num_nodes":"9","size_leaf_vector":"1"}},{"base_weights":[7.0754914E-3,-3.744364E-2,2.3318458E-1,-2.9623857E-2,3.353749E-1,4.016095E-2,4.5855497E-3],"categories":[],"categories_nodes":[],"categories_segments":[],"categories_sizes":[],"default_left":[0,0,0,0,0,0,0],"id":90,"left_children":[1,-1,3,-1,5,-1,-1],"loss_changes":[2.3187237E0,0E0,1.0247729E0,0E0,5.741861E-1,0E0,0E0],"parents":[2147483647,0,0,2,2,4,4],"right_children":[2,-1,4,-1,6,-1,-1],"split_conditions":[6.76E0,-3.744364E-2,1.514E3,-2.9623857E-2,5.34E0,4.016095E-2,4.5855497E-3],"split_indices":[3,0,11,0,8,0,0],"split_type":[0,0,0,0,0,0,0],"sum_hessian":[1.9567808E1,5.964551E0,1.3603256E1,1.5899898E0,1.2013267E1,7.007985E0,5.0052814E0],"tree_param":{"num_deleted":"0","num_feature":"19","num_nodes":"7","size_leaf_vector":"1"}},{"base_weights":[-7.231614E-2,3.0277655E-1,-3.7784398E-2,4.401674E-1,-1.7205391E-2,4.1641273E-2,-7.681964E-6],"categories":[],"categories_nodes":[],"categories_segments":[],"categories_sizes":[],"default_left":[0,0,0,0,0,0,0],"id":91,"left_children":[1,3,-1,5,-1,-1,-1],"loss_changes":[2.6728494E0,7.571259E-1,0E0,2.7197373E-1,0E0,0E0,0E0],"parents":[2147483647,0,0,1,1,3,3],"right_children":[2,4,-1,6,-1,-1,-1],"split_conditions":[4.3E1,1.68E2,-3.7784398E-2,1.771E3,-1.7205391E-2,4.1641273E-2,-7.681964E-6],"split_indices":[5,7,0,11,0,0,0],"split_type":[0,0,0,0,0,0,0],"sum_hessian":[1.5861948E1,8.311145E0,7.550804E0,6.6869955E0,1.6241487E0,5.5008097E0,1.1861861E0],"tree_param":{"num_deleted":"0","num_feature":"19","num_nodes":"7","size_leaf_vector":"1"}},{"base_weights":[2.4044873E-2,-3.304108E-2,9.431394E-2,1.7525603E-1,-3.0266406E-2,4.4873054E-3,3.9018426E-2],"categories":[],"categories_nodes":[],"categories_segments":[],"categories_sizes":[],"default_left":[0,0,0,0,0,0,0],"id":92,"left_children":[1,-1,3,5,-1,-1,-1],"loss_changes":[7.7682686E-1,0E0,8.892908E-1,6.819939E-1,0E0,0E0,0E0],"parents":[2147483647,0,0,2,2,3,3],"right_children":[2,-1,4,6,-1,-1,-1],"split_conditions":[3.4E1,-3.304108E-2,6.9E1,5.31E0,-3.0266406E-2,4.4873054E-3,3.9018426E-2],"split_indices":[5,0,5,8,0,0,0],"split_type":[0,0,0,0,0,0,0],"sum_hessian":[2.302584E1,2.5136821E0,2.051216E1,1.8050196E1,2.4619637E0,1.3920864E1,4.129331E0],"tree_param":{"num_deleted":"0","num_feature":"19","num_nodes":"7","size_leaf_vector":"1"}},{"base_weights":[-7.675418E-2,-2.9563972E-1,4.12776E-2,2.524572E-1,-4.317295E-1,3.7882924E-2,-8.562337E-3,-4.053269E-2,-1.2633328E-2],"categories":[],"categories_nodes":[],"categories_segments":[],"categories_sizes":[],"default_left":[0,0,0,0,0,0,0,0,0],"id":93,"left_children":[1,3,-1,5,7,-1,-1,-1,-1],"loss_changes":[2.548162E0,1.1622713E0,0E0,3.2405627E-1,1.5964532E-1,0E0,0E0,0E0,0E0],"parents":[2147483647,0,0,1,1,3,3,4,4],"right_children":[2,4,-1,6,8,-1,-1,-1,-1],"split_conditions":[9.88E0,7.7E1,4.12776E-2,9.5E1,1.48E2,3.7882924E-2,-8.562337E-3,-4.053269E-2,-1.2633328E-2],"split_indices":[3,1,0,2,6,0,0,0,0],"split_type":[0,0,0,0,0,0,0,0,0],"sum_hessian":[1.746496E1,1.3120825E1,4.3441358E0,2.4397476E0,1.0681077E1,1.3142453E0,1.1255022E0,7.7185173E0,2.9625597E0],"tree_param":{"num_deleted":"0","num_feature":"19","num_nodes":"9","size_leaf_vector":"1"}},{"base_weights":[-6.1885003E-2,2.95638E-1,-3.732529E-2,-1.2918188E-2,4.1971293E-1,8.4971794E-4,3.9411213E-2],"categories":[],"categories_nodes":[],"categories_segments":[],"categories_sizes":[],"default_left":[0,0,0,0,0,0,0],"id":94,"left_children":[1,3,-1,-1,5,-1,-1],"loss_changes":[2.484331E0,5.9084743E-1,0E0,0E0,2.1946311E-1,0E0,0E0],"parents":[2147483647,0,0,1,1,4,4],"right_children":[2,4,-1,-1,6,-1,-1],"split_conditions":[4.3E1,9.4E1,-3.732529E-2,-1.2918188E-2,2.58E0,8.4971794E-4,3.9411213E-2],"split_indices":[5,2,0,0,8,0,0],"split_type":[0,0,0,0,0,0,0],"sum_hessian":[1.5217522E1,8.222584E0,6.9949384E0,1.6910369E0,6.5315466E0,1.1615245E0,5.370022E0],"tree_param":{"num_deleted":"0","num_feature":"19","num_nodes":"7","size_leaf_vector":"1"}},{"base_weights":[1.52385095E-2,-3.442887E-2,1.0136821E-1,2.4324828E-1,-2.3930813E-1,-6.1099986E-3,3.088734E-2,-3.125085E-2,2.3053862E-2],"categories":[],"categories_nodes":[],"categories_segments":[],"categories_sizes":[],"default_left":[0,0,0,0,0,0,0,0,0],"id":95,"left_children":[1,-1,3,5,7,-1,-1,-1,-1],"loss_changes":[9.407116E-1,0E0,1.0441236E0,7.0958656E-1,6.315186E-1,0E0,0E0,0E0,0E0],"parents":[2147483647,0,0,2,2,3,3,4,4],"right_children":[2,-1,4,6,8,-1,-1,-1,-1],"split_conditions":[7E0,-3.442887E-2,6.3E1,1.24E2,1.97E2,-6.1099986E-3,3.088734E-2,-3.125085E-2,2.3053862E-2],"split_indices":[4,0,0,6,10,0,0,0,0],"split_type":[0,0,0,0,0,0,0,0,0],"sum_hessian":[2.2374208E1,2.976803E0,1.9397406E1,1.3896128E1,5.501279E0,4.4358635E0,9.460264E0,4.476471E0,1.024808E0],"tree_param":{"num_deleted":"0","num_feature":"19","num_nodes":"9","size_leaf_vector":"1"}},{"base_weights":[1.4940009E-2,-3.6073435E-2,1.9952674E-1,-2.9329216E-2,2.9239428E-1,9.4927265E-4,3.9643966E-2],"categories":[],"categories_nodes":[],"categories_segments":[],"categories_sizes":[],"default_left":[0,0,0,0,0,0,0],"id":96,"left_children":[1,-1,3,-1,5,-1,-1],"loss_changes":[1.8231363E0,0E0,9.02604E-1,0E0,7.6651907E-1,0E0,0E0],"parents":[2147483647,0,0,2,2,4,4],"right_children":[2,-1,4,-1,6,-1,-1],"split_conditions":[6.63E0,-3.6073435E-2,1.453E3,-2.9329216E-2,1.81E2,9.4927265E-4,3.9643966E-2],"split_indices":[3,0,11,0,7,0,0],"split_type":[0,0,0,0,0,0,0],"sum_hessian":[1.9155157E1,5.026494E0,1.4128663E1,1.575617E0,1.2553046E1,5.71704E0,6.836006E0],"tree_param":{"num_deleted":"0","num_feature":"19","num_nodes":"7","size_leaf_vector":"1"}},{"base_weights":[-3.4152105E-2,3.0825165E-1,-3.69731E-2,-1.3017767E-2,4.2709282E-1,-1.0485123E-3,3.970599E-2],"categories":[],"categories_nodes":[],"categories_segments":[],"categories_sizes":[],"default_left":[0,0,0,0,0,0,0],"id":97,"left_children":[1,3,-1,-1,5,-1,-1],"loss_changes":[2.547137E0,6.132927E-1,0E0,0E0,2.5134647E-1,0E0,0E0],"parents":[2147483647,0,0,1,1,4,4],"right_children":[2,4,-1,-1,6,-1,-1],"split_conditions":[4.3E1,9.4E1,-3.69731E-2,-1.3017767E-2,4.6E1,-1.0485123E-3,3.970599E-2],"split_indices":[5,2,0,0,0,0,0],"split_type":[0,0,0,0,0,0,0],"sum_hessian":[1.5408245E1,8.715647E0,6.692599E0,1.6817083E0,7.0339384E0,1.0660905E0,5.967848E0],"tree_param":{"num_deleted":"0","num_feature":"19","num_nodes":"7","size_leaf_vector":"1"}},{"base_weights":[-8.80026E-3,-3.2089707E-2,5.5804435E-2,1.495328E-1,-3.559562E-1,-4.7510914E-3,3.357508E-2,-7.109373E-3,-3.3643696E-2],"categories":[],"categories_nodes":[],"categories_segments":[],"categories_sizes":[],"default_left":[0,0,0,0,0,0,0,0,0],"id":98,"left_children":[1,-1,3,5,7,-1,-1,-1,-1],"loss_changes":[5.993402E-1,0E0,8.4141535E-1,1.003624E0,3.305781E-2,0E0,0E0,0E0,0E0],"parents":[2147483647,0,0,2,2,3,3,4,4],"right_children":[2,-1,4,6,8,-1,-1,-1,-1],"split_conditions":[3.4E1,-3.2089707E-2,9.88E0,4.63E0,1.42E2,-4.7510914E-3,3.357508E-2,-7.109373E-3,-3.3643696E-2],"split_indices":[5,0,3,8,6,0,0,0,0],"split_type":[0,0,0,0,0,0,0,0,0],"sum_hessian":[2.1763388E1,2.3406434E0,1.9422743E1,1.6340117E1,3.082627E0,9.654276E0,6.6858406E0,1.0629678E0,2.0196593E0],"tree_param":{"num_deleted":"0","num_feature":"19","num_nodes":"9","size_leaf_vector":"1"}},{"base_weights":[5.7668127E-2,-3.5462696E-2,2.5085822E-1,-2.977387E-2,3.6491212E-1,3.6470767E-2,-2.3417238E-2],"categories":[],"categories_nodes":[],"categories_segments":[],"categories_sizes":[],"default_left":[0,0,0,0,0,0,0],"id":99,"left_children":[1,-1,3,-1,5,-1,-1],"loss_changes":[1.9410453E0,0E0,1.1508086E0,0E0,8.859681E-1,0E0,0E0],"parents":[2147483647,0,0,2,2,4,4],"right_children":[2,-1,4,-1,6,-1,-1],"split_conditions":[6.63E0,-3.5462696E-2,1.453E3,-2.977387E-2,8.8E1,3.6470767E-2,-2.3417238E-2],"split_indices":[3,0,11,0,1,0,0],"split_type":[0,0,0,0,0,0,0],"sum_hessian":[1.7907463E1,4.623623E0,1.3283839E1,1.7053034E0,1.1578536E1,1.0440967E1,1.13757E0],"tree_param":{"num_deleted":"0","num_feature":"19","num_nodes":"7","size_leaf_vector":"1"}},{"base_weights":[3.6425632E-3,3.7134844E-1,-3.6125444E-2,4.0449925E-2,-7.94542E-3],"categories":[],"categories_nodes":[],"categories_segments":[],"categories_sizes":[],"default_left":[0,0,0,0,0],"id":100,"left_children":[1,3,-1,-1,-1],"loss_changes":[2.5632067E0,5.8522344E-1,0E0,0E0,0E0],"parents":[2147483647,0,0,1,1],"right_children":[2,4,-1,-1,-1],"split_conditions":[4.3E1,1.7E2,-3.6125444E-2,4.0449925E-2,-7.94542E-3],"split_indices":[5,7,0,0,0],"split_type":[0,0,0,0,0],"sum_hessian":[1.3311541E1,7.46542E0,5.8461213E0,5.750574E0,1.7148457E0],"tree_param":{"num_deleted":"0","num_feature":"19","num_nodes":"5","size_leaf_vector":"1"}},{"base_weights":[1.3952564E-2,9.432782E-2,-3.6352456E-1,-1.18771516E-1,3.975253E-1,-3.4499504E-2,-6.7408583E-3,1.3900574E-2,-2.1662084E-2,3.8348693E-2,-2.2154336E-3],"categories":[],"categories_nodes":[],"categories_segments":[],"categories_sizes":[],"default_left":[0,0,0,0,0,0,0,0,0,0,0],"id":101,"left_children":[1,3,5,7,9,-1,-1,-1,-1,-1,-1],"loss_changes":[7.337708E-1,1.3266187E0,4.4098914E-2,5.983583E-1,3.0567694E-1,0E0,0E0,0E0,0E0,0E0,0E0],"parents":[2147483647,0,0,1,1,2,2,3,3,4,4],"right_children":[2,4,6,8,10,-1,-1,-1,-1,-1,-1],"split_conditions":[9.88E0,4.63E0,9.7E1,5.5E1,6.6E1,-3.4499504E-2,-6.7408583E-3,1.3900574E-2,-2.1662084E-2,3.8348693E-2,-2.2154336E-3],"split_indices":[3,8,2,0,5,0,0,0,0,0,0],"split_type":[0,0,0,0,0,0,0,0,0,0,0],"sum_hessian":[2.2054857E1,1.880159E1,3.253266E0,1.1398522E1,7.4030685E0,2.1803353E0,1.0729307E0,3.848699E0,7.5498233E0,6.101507E0,1.3015609E0],"tree_param":{"num_deleted":"0","num_feature":"19","num_nodes":"11","size_leaf_vector":"1"}},{"base_weights":[3.0917898E-2,-3.5109077E-2,2.3091678E-1,-2.4800718E-2,3.0892277E-1,3.3133455E-2,-4.6853507E-3],"categories":[],"categories_nodes":[],"categories_segments":[],"categories_sizes":[],"default_left":[0,0,0,0,0,0,0],"id":102,"left_children":[1,-1,3,-1,5,-1,-1],"loss_changes":[1.7699598E0,0E0,6.490259E-1,0E0,4.868337E-1,0E0,0E0],"parents":[2147483647,0,0,2,2,4,4],"right_children":[2,-1,4,-1,6,-1,-1],"split_conditions":[6.76E0,-3.5109077E-2,1.514E3,-2.4800718E-2,2.272E3,3.3133455E-2,-4.6853507E-3],"split_indices":[3,0,11,0,11,0,0],"split_type":[0,0,0,0,0,0,0],"sum_hessian":[1.6759626E1,4.6478558E0,1.211177E1,1.1516418E0,1.0960128E1,8.421324E0,2.5388045E0],"tree_param":{"num_deleted":"0","num_feature":"19","num_nodes":"7","size_leaf_vector":"1"}},{"base_weights":[-1.6941903E-2,3.2767302E-1,-3.5811134E-2,3.8422514E-2,-9.814969E-3],"categories":[],"categories_nodes":[],"categories_segments":[],"categories_sizes":[],"default_left":[0,0,0,0,0],"id":103,"left_children":[1,3,-1,-1,-1],"loss_changes":[2.1855676E0,6.230765E-1,0E0,0E0,0E0],"parents":[2147483647,0,0,1,1],"right_children":[2,4,-1,-1,-1],"split_conditions":[4.3E1,1.68E2,-3.5811134E-2,3.8422514E-2,-9.814969E-3],"split_indices":[5,7,0,0,0],"split_type":[0,0,0,0,0],"sum_hessian":[1.2736851E1,7.2083883E0,5.5284624E0,5.3343573E0,1.8740312E0],"tree_param":{"num_deleted":"0","num_feature":"19","num_nodes":"5","size_leaf_vector":"1"}},{"base_weights":[3.270742E-2,-3.1816192E-2,1.0500441E-1,1.8799481E-1,-2.927543E-2,-3.9374584E-4,3.197972E-2],"categories":[],"categories_nodes":[],"categories_segments":[],"categories_sizes":[],"default_left":[0,0,0,0,0,0,0],"id":104,"left_children":[1,-1,3,5,-1,-1,-1],"loss_changes":[7.2475415E-1,0E0,8.3419895E-1,7.090939E-1,0E0,0E0,0E0],"parents":[2147483647,0,0,2,2,3,3],"right_children":[2,-1,4,6,-1,-1,-1],"split_conditions":[3.4E1,-3.1816192E-2,6.8E1,4.63E0,-2.927543E-2,-3.9374584E-4,3.197972E-2],"split_indices":[5,0,5,8,0,0,0],"split_type":[0,0,0,0,0,0,0],"sum_hessian":[2.0948977E1,2.365479E0,1.8583498E1,1.6310139E1,2.2733593E0,9.045752E0,7.264386E0],"tree_param":{"num_deleted":"0","num_feature":"19","num_nodes":"7","size_leaf_vector":"1"}},{"base_weights":[-3.6914244E-2,-2.6250437E-1,3.396666E-1,-3.701237E-1,2.307469E-2,4.457799E-1,-1.0358261E-2,2.2252537E-3,-3.8173247E-2,1.0641538E-2,3.950782E-2],"categories":[],"categories_nodes":[],"categories_segments":[],"categories_sizes":[],"default_left":[0,0,0,0,0,0,0,0,0,0,0],"id":105,"left_children":[1,3,5,7,-1,9,-1,-1,-1,-1,-1],"loss_changes":[1.5840572E0,7.9267496E-1,4.0759802E-1,4.4417775E-1,0E0,2.3861885E-2,0E0,0E0,0E0,0E0,0E0],"parents":[2147483647,0,0,1,1,2,2,3,3,5,5],"right_children":[2,4,6,8,-1,10,-1,-1,-1,-1,-1],"split_conditions":[6.3E1,1.88E2,1.94E2,7.8E1,2.307469E-2,1.617E3,-1.0358261E-2,2.2252537E-3,-3.8173247E-2,1.0641538E-2,3.950782E-2],"split_indices":[0,7,10,1,0,11,0,0,0,0,0],"split_type":[0,0,0,0,0,0,0,0,0,0,0],"sum_hessian":[1.6596725E1,1.0568569E1,6.0281568E0,9.116048E0,1.4525206E0,4.956807E0,1.0713496E0,2.0892363E0,7.026812E0,1.1621869E0,3.79462E0],"tree_param":{"num_deleted":"0","num_feature":"19","num_nodes":"11","size_leaf_vector":"1"}},{"base_weights":[-2.71145E-2,3.7202016E-1,-3.6717996E-1,3.8774405E-2,4.8785875E-4,7.635632E-3,-3.630582E-2],"categories":[],"categories_nodes":[],"categories_segments":[],"categories_sizes":[],"default_left":[0,0,0,0,0,0,0],"id":106,"left_children":[1,3,5,-1,-1,-1,-1],"loss_changes":[2.0833774E0,2.8953695E-1,3.7391102E-1,0E0,0E0,0E0,0E0],"parents":[2147483647,0,0,1,1,2,2],"right_children":[2,4,6,-1,-1,-1,-1],"split_conditions":[5.5E0,1.7E2,7E0,3.8774405E-2,4.8785875E-4,7.635632E-3,-3.630582E-2],"split_indices":[3,7,4,0,0,0,0],"split_type":[0,0,0,0,0,0,0],"sum_hessian":[1.3342826E1,6.0950737E0,7.2477517E0,4.412125E0,1.6829488E0,1.1272503E0,6.1205015E0],"tree_param":{"num_deleted":"0","num_feature":"19","num_nodes":"7","size_leaf_vector":"1"}},{"base_weights":[1.4910103E-2,1.06634445E-1,-2.9647475E-1,-3.1197779E-2,2.0624834E-1,1.4054815E-2,-3.665558E-2,4.993872E-3,3.6268122E-2],"categories":[],"categories_nodes":[],"categories_segments":[],"categories_sizes":[],"default_left":[0,0,0,0,0,0,0,0,0],"id":107,"left_children":[1,3,5,-1,7,-1,-1,-1,-1],"loss_changes":[6.484144E-1,9.420336E-1,4.7590926E-1,0E0,5.105219E-1,0E0,0E0,0E0,0E0],"parents":[2147483647,0,0,1,1,2,2,4,4],"right_children":[2,4,6,-1,8,-1,-1,-1,-1],"split_conditions":[6.3E1,3.4E1,1.605E3,-3.1197779E-2,1.81E2,1.4054815E-2,-3.665558E-2,4.993872E-3,3.6268122E-2],"split_indices":[0,5,11,0,10,0,0,0,0],"split_type":[0,0,0,0,0,0,0,0,0],"sum_hessian":[2.059545E1,1.6417044E1,4.178406E0,2.255889E0,1.4161156E1,1.0439936E0,3.134412E0,9.74295E0,4.4182053E0],"tree_param":{"num_deleted":"0","num_feature":"19","num_nodes":"9","size_leaf_vector":"1"}},{"base_weights":[-1.7924298E-2,-1.8283057E-1,3.524722E-2,-3.3827966E-1,1.928448E-1,-6.9795065E-3,-3.9519668E-2,2.971441E-2,-1.4446239E-2],"categories":[],"categories_nodes":[],"categories_segments":[],"categories_sizes":[],"default_left":[0,0,0,0,0,0,0,0,0],"id":108,"left_children":[1,3,-1,5,7,-1,-1,-1,-1],"loss_changes":[1.3902311E0,8.504628E-1,0E0,3.4287035E-1,3.7198818E-1,0E0,0E0,0E0,0E0],"parents":[2147483647,0,0,1,1,3,3,4,4],"right_children":[2,4,-1,6,8,-1,-1,-1,-1],"split_conditions":[9.88E0,1.84E2,3.524722E-2,1.23E2,8.28E0,-6.9795065E-3,-3.9519668E-2,2.971441E-2,-1.4446239E-2],"split_indices":[3,7,0,6,9,0,0,0,0],"split_type":[0,0,0,0,0,0,0,0,0],"sum_hessian":[1.6321049E1,1.2446043E1,3.8750057E0,8.873754E0,3.5722895E0,3.9944417E0,4.8793116E0,2.4201944E0,1.1520951E0],"tree_param":{"num_deleted":"0","num_feature":"19","num_nodes":"9","size_leaf_vector":"1"}},{"base_weights":[2.6102206E-2,3.6629575E-1,-3.525584E-2,3.9394632E-2,-3.8564727E-3],"categories":[],"categories_nodes":[],"categories_segments":[],"categories_sizes":[],"default_left":[0,0,0,0,0],"id":109,"left_children":[1,3,-1,-1,-1],"loss_changes":[2.3231847E0,4.6398985E-1,0E0,0E0,0E0],"parents":[2147483647,0,0,1,1],"right_children":[2,4,-1,-1,-1],"split_conditions":[4.3E1,1.7E2,-3.525584E-2,3.9394632E-2,-3.8564727E-3],"split_indices":[5,7,0,0,0],"split_type":[0,0,0,0,0],"sum_hessian":[1.2612884E1,7.420381E0,5.192503E0,5.5449753E0,1.8754058E0],"tree_param":{"num_deleted":"0","num_feature":"19","num_nodes":"5","size_leaf_vector":"1"}},{"base_weights":[9.390566E-3,8.0441885E-2,-2.8139072E-2,-1.132458E-1,3.7586686E-1,-4.0828016E-2,-6.9872854E-6,3.5902746E-2,-9.035841E-4],"categories":[],"categories_nodes":[],"categories_segments":[],"categories_sizes":[],"default_left":[0,0,0,0,0,0,0,0,0],"id":110,"left_children":[1,3,-1,5,7,-1,-1,-1,-1],"loss_changes":[6.005407E-1,1.1554735E0,0E0,5.6237304E-1,2.2903919E-1,0E0,0E0,0E0,0E0],"parents":[2147483647,0,0,1,1,3,3,4,4],"right_children":[2,4,-1,6,8,-1,-1,-1,-1],"split_conditions":[9.88E0,4.63E0,-2.8139072E-2,7.8E1,6.6E1,-4.0828016E-2,-6.9872854E-6,3.5902746E-2,-9.035841E-4],"split_indices":[3,8,0,1,5,0,0,0,0],"split_type":[0,0,0,0,0,0,0,0,0],"sum_hessian":[2.1302237E1,1.8449574E1,2.852664E0,1.1516046E1,6.9335275E0,1.7754501E0,9.740596E0,5.7007003E0,1.2328268E0],"tree_param":{"num_deleted":"0","num_feature":"19","num_nodes":"9","size_leaf_vector":"1"}},{"base_weights":[4.3148477E-2,-3.4393784E-2,2.2004929E-1,-2.7862651E-2,3.199767E-1,3.246991E-2,-7.7419183E-3],"categories":[],"categories_nodes":[],"categories_segments":[],"categories_sizes":[],"default_left":[0,0,0,0,0,0,0],"id":111,"left_children":[1,-1,3,-1,5,-1,-1],"loss_changes":[1.5834044E0,0E0,8.843661E-1,0E0,4.722798E-1,0E0,0E0],"parents":[2147483647,0,0,2,2,4,4],"right_children":[2,-1,4,-1,6,-1,-1],"split_conditions":[6.63E0,-3.4393784E-2,1.514E3,-2.7862651E-2,1.91E2,3.246991E-2,-7.7419183E-3],"split_indices":[3,0,11,0,10,0,0],"split_type":[0,0,0,0,0,0,0],"sum_hessian":[1.6790186E1,4.180454E0,1.2609732E1,1.5139351E0,1.1095797E1,9.221282E0,1.8745145E0],"tree_param":{"num_deleted":"0","num_feature":"19","num_nodes":"7","size_leaf_vector":"1"}},{"base_weights":[-3.7679736E-2,3.6767027E-1,-3.7296525E-1,3.6763955E-2,-2.8436775E-3,8.767993E-3,-3.708042E-2],"categories":[],"categories_nodes":[],"categories_segments":[],"categories_sizes":[],"default_left":[0,0,0,0,0,0,0],"id":112,"left_children":[1,3,5,-1,-1,-1,-1],"loss_changes":[1.8998661E0,2.5251555E-1,3.8263476E-1,0E0,0E0,0E0,0E0],"parents":[2147483647,0,0,1,1,2,2],"right_children":[2,4,6,-1,-1,-1,-1],"split_conditions":[4E1,1.833E3,1.57E2,3.6763955E-2,-2.8436775E-3,8.767993E-3,-3.708042E-2],"split_indices":[5,11,7,0,0,0,0],"split_type":[0,0,0,0,0,0,0],"sum_hessian":[1.1970084E1,5.3751283E0,6.594956E0,4.263837E0,1.1112915E0,1.0086234E0,5.5863323E0],"tree_param":{"num_deleted":"0","num_feature":"19","num_nodes":"7","size_leaf_vector":"1"}},{"base_weights":[4.294871E-3,-1.17901474E-1,2.6085007E-1,2.3856912E-2,-1.833402E-1,3.9509576E-2,-1.872267E-2,-3.814191E-2,-7.6763873E-4],"categories":[],"categories_nodes":[],"categories_segments":[],"categories_sizes":[],"default_left":[0,0,0,0,0,0,0,0,0],"id":113,"left_children":[1,3,5,-1,7,-1,-1,-1,-1],"loss_changes":[6.8679595E-1,4.594075E-1,9.3003786E-1,0E0,6.8180346E-1,0E0,0E0,0E0,0E0],"parents":[2147483647,0,0,1,1,2,2,4,4],"right_children":[2,4,6,-1,8,-1,-1,-1,-1],"split_conditions":[1.82E2,4.7E1,9.41E0,2.3856912E-2,1.24E2,3.9509576E-2,-1.872267E-2,-3.814191E-2,-7.6763873E-4],"split_indices":[10,0,3,0,6,0,0,0,0],"split_type":[0,0,0,0,0,0,0,0,0],"sum_hessian":[1.9926287E1,1.38635645E1,6.0627227E0,1.400559E0,1.2463005E1,4.123289E0,1.9394336E0,3.9863834E0,8.476622E0],"tree_param":{"num_deleted":"0","num_feature":"19","num_nodes":"9","size_leaf_vector":"1"}},{"base_weights":[2.8486937E-2,-3.271666E-1,2.5658223E-1,1.1908084E-2,-3.625866E-2,3.4958988E-1,-2.3364054E-2,4.256538E-2,